Cufon.registerFont({"w":554,"face":{"font-family":"AvantGarde","font-weight":400,"font-stretch":"normal","units-per-em":"1000","panose-1":"0 0 4 0 0 0 0 0 0 0","ascent":"800","descent":"-200","x-height":"13","bbox":"-45 -808 950 214.077","underline-thickness":"58","underline-position":"-67","unicode-range":"U+0020-U+007E"},"glyphs":{" ":{"w":277},"\u2031":{"w":277},"\u2025":{"w":277},"\u2024":{"w":277},"\u2023":{"w":277},"\u201f":{"w":277},"\u201b":{"w":277},"\u2017":{"w":277},"\u2016":{"w":277},"\u2015":{"w":277},"!":{"d":"111,0r0,-126r74,0r0,126r-74,0xm111,-193r0,-546r74,0r0,546r-74,0","w":295},"\"":{"d":"74,-513r0,-226r52,0r0,226r-52,0xm185,-513r0,-226r52,0r0,226r-52,0","w":309},"#":{"d":"80,0r74,-250r-149,0r16,-58r150,0r36,-123r-149,0r16,-58r151,0r73,-250r42,0r-72,250r89,0r74,-250r41,0r-73,250r150,0r-16,58r-151,0r-36,123r150,0r-17,58r-151,0r-73,250r-43,0r74,-250r-90,0r-74,250r-42,0xm213,-308r91,0r35,-123r-90,0"},"$":{"d":"479,-221v4,94,-78,191,-169,192r0,83r-65,0r0,-83v-89,-15,-176,-91,-170,-198r70,0v-5,73,60,134,133,134v68,0,132,-59,130,-127v-3,-89,-53,-120,-135,-142v-110,-29,-172,-75,-175,-188v-3,-93,65,-162,147,-175r0,-83r65,0r0,83v90,11,160,85,162,182r-70,0v0,-67,-53,-118,-121,-118v-104,0,-150,139,-76,198v15,12,43,24,84,36v121,34,185,83,190,206"},"%":{"d":"181,0r332,-739r72,0r-332,739r-72,0xm13,-578v0,-97,79,-173,176,-173v95,0,172,80,172,175v0,91,-82,175,-173,175v-92,0,-175,-84,-175,-177xm290,-581v0,-54,-47,-99,-101,-99v-60,0,-105,44,-105,103v0,55,48,105,103,105v58,0,103,-51,103,-109xm403,-160v0,-96,80,-178,176,-178v95,0,173,85,173,179v0,92,-82,172,-174,172v-92,0,-175,-81,-175,-173xm681,-163v0,-54,-48,-104,-102,-104v-60,0,-105,48,-105,108v0,55,50,101,104,101v57,0,103,-48,103,-105","w":775},"\u202f":{"d":"181,0r332,-739r72,0r-332,739r-72,0xm13,-578v0,-97,79,-173,176,-173v95,0,172,80,172,175v0,91,-82,175,-173,175v-92,0,-175,-84,-175,-177xm290,-581v0,-54,-47,-99,-101,-99v-60,0,-105,44,-105,103v0,55,48,105,103,105v58,0,103,-51,103,-109xm403,-160v0,-96,80,-178,176,-178v95,0,173,85,173,179v0,92,-82,172,-174,172v-92,0,-175,-81,-175,-173xm681,-163v0,-54,-48,-104,-102,-104v-60,0,-105,48,-105,108v0,55,50,101,104,101v57,0,103,-48,103,-105","w":775},"\u202e":{"d":"181,0r332,-739r72,0r-332,739r-72,0xm13,-578v0,-97,79,-173,176,-173v95,0,172,80,172,175v0,91,-82,175,-173,175v-92,0,-175,-84,-175,-177xm290,-581v0,-54,-47,-99,-101,-99v-60,0,-105,44,-105,103v0,55,48,105,103,105v58,0,103,-51,103,-109xm403,-160v0,-96,80,-178,176,-178v95,0,173,85,173,179v0,92,-82,172,-174,172v-92,0,-175,-81,-175,-173xm681,-163v0,-54,-48,-104,-102,-104v-60,0,-105,48,-105,108v0,55,50,101,104,101v57,0,103,-48,103,-105","w":775},"\u202d":{"d":"181,0r332,-739r72,0r-332,739r-72,0xm13,-578v0,-97,79,-173,176,-173v95,0,172,80,172,175v0,91,-82,175,-173,175v-92,0,-175,-84,-175,-177xm290,-581v0,-54,-47,-99,-101,-99v-60,0,-105,44,-105,103v0,55,48,105,103,105v58,0,103,-51,103,-109xm403,-160v0,-96,80,-178,176,-178v95,0,173,85,173,179v0,92,-82,172,-174,172v-92,0,-175,-81,-175,-173xm681,-163v0,-54,-48,-104,-102,-104v-60,0,-105,48,-105,108v0,55,50,101,104,101v57,0,103,-48,103,-105","w":775},"\u202c":{"d":"181,0r332,-739r72,0r-332,739r-72,0xm13,-578v0,-97,79,-173,176,-173v95,0,172,80,172,175v0,91,-82,175,-173,175v-92,0,-175,-84,-175,-177xm290,-581v0,-54,-47,-99,-101,-99v-60,0,-105,44,-105,103v0,55,48,105,103,105v58,0,103,-51,103,-109xm403,-160v0,-96,80,-178,176,-178v95,0,173,85,173,179v0,92,-82,172,-174,172v-92,0,-175,-81,-175,-173xm681,-163v0,-54,-48,-104,-102,-104v-60,0,-105,48,-105,108v0,55,50,101,104,101v57,0,103,-48,103,-105","w":775},"\u202b":{"d":"181,0r332,-739r72,0r-332,739r-72,0xm13,-578v0,-97,79,-173,176,-173v95,0,172,80,172,175v0,91,-82,175,-173,175v-92,0,-175,-84,-175,-177xm290,-581v0,-54,-47,-99,-101,-99v-60,0,-105,44,-105,103v0,55,48,105,103,105v58,0,103,-51,103,-109xm403,-160v0,-96,80,-178,176,-178v95,0,173,85,173,179v0,92,-82,172,-174,172v-92,0,-175,-81,-175,-173xm681,-163v0,-54,-48,-104,-102,-104v-60,0,-105,48,-105,108v0,55,50,101,104,101v57,0,103,-48,103,-105","w":775},"\u202a":{"d":"181,0r332,-739r72,0r-332,739r-72,0xm13,-578v0,-97,79,-173,176,-173v95,0,172,80,172,175v0,91,-82,175,-173,175v-92,0,-175,-84,-175,-177xm290,-581v0,-54,-47,-99,-101,-99v-60,0,-105,44,-105,103v0,55,48,105,103,105v58,0,103,-51,103,-109xm403,-160v0,-96,80,-178,176,-178v95,0,173,85,173,179v0,92,-82,172,-174,172v-92,0,-175,-81,-175,-173xm681,-163v0,-54,-48,-104,-102,-104v-60,0,-105,48,-105,108v0,55,50,101,104,101v57,0,103,-48,103,-105","w":775},"\u2029":{"d":"181,0r332,-739r72,0r-332,739r-72,0xm13,-578v0,-97,79,-173,176,-173v95,0,172,80,172,175v0,91,-82,175,-173,175v-92,0,-175,-84,-175,-177xm290,-581v0,-54,-47,-99,-101,-99v-60,0,-105,44,-105,103v0,55,48,105,103,105v58,0,103,-51,103,-109xm403,-160v0,-96,80,-178,176,-178v95,0,173,85,173,179v0,92,-82,172,-174,172v-92,0,-175,-81,-175,-173xm681,-163v0,-54,-48,-104,-102,-104v-60,0,-105,48,-105,108v0,55,50,101,104,101v57,0,103,-48,103,-105","w":775},"\u2028":{"d":"181,0r332,-739r72,0r-332,739r-72,0xm13,-578v0,-97,79,-173,176,-173v95,0,172,80,172,175v0,91,-82,175,-173,175v-92,0,-175,-84,-175,-177xm290,-581v0,-54,-47,-99,-101,-99v-60,0,-105,44,-105,103v0,55,48,105,103,105v58,0,103,-51,103,-109xm403,-160v0,-96,80,-178,176,-178v95,0,173,85,173,179v0,92,-82,172,-174,172v-92,0,-175,-81,-175,-173xm681,-163v0,-54,-48,-104,-102,-104v-60,0,-105,48,-105,108v0,55,50,101,104,101v57,0,103,-48,103,-105","w":775},"\u2027":{"d":"181,0r332,-739r72,0r-332,739r-72,0xm13,-578v0,-97,79,-173,176,-173v95,0,172,80,172,175v0,91,-82,175,-173,175v-92,0,-175,-84,-175,-177xm290,-581v0,-54,-47,-99,-101,-99v-60,0,-105,44,-105,103v0,55,48,105,103,105v58,0,103,-51,103,-109xm403,-160v0,-96,80,-178,176,-178v95,0,173,85,173,179v0,92,-82,172,-174,172v-92,0,-175,-81,-175,-173xm681,-163v0,-54,-48,-104,-102,-104v-60,0,-105,48,-105,108v0,55,50,101,104,101v57,0,103,-48,103,-105","w":775},"&":{"d":"318,-751v97,0,182,78,182,175v0,75,-48,130,-145,166r140,138r107,-208r83,0r-137,261r187,182r-53,50r-169,-165v-55,110,-130,165,-227,165v-123,0,-229,-106,-229,-229v0,-91,55,-165,166,-220v-52,-52,-78,-103,-78,-154v0,-86,88,-161,173,-161xm131,-210v0,77,72,155,149,152v97,-5,135,-65,178,-147r-178,-174v-76,35,-149,100,-149,169xm322,-680v-84,0,-138,96,-75,162v10,10,26,29,53,54v84,-29,126,-70,126,-122v0,-50,-55,-94,-104,-94","w":757},"'":{"d":"74,-513r0,-226r50,0r0,226r-50,0","w":198},"(":{"d":"335,127v-132,-32,-278,-247,-278,-431v0,-191,142,-404,278,-435r0,65v-111,60,-204,207,-204,370v1,156,96,309,204,366r0,65","w":369},")":{"d":"34,-739v137,35,278,242,278,435v0,186,-147,398,-278,431r0,-65v109,-57,204,-208,204,-366v0,-163,-92,-310,-204,-370r0,-65","w":369},"*":{"d":"360,-633r0,51r-100,0r53,88r-46,28r-54,-90r-52,90r-48,-28r54,-88r-103,0r0,-51r103,0r-54,-90r48,-28r52,90r54,-90r46,28r-53,90r100,0","w":425},"+":{"d":"265,-341r0,-213r76,0r0,213r214,0r0,76r-214,0r0,216r-76,0r0,-216r-214,0r0,-76r214,0","w":606},",":{"d":"91,67r88,-193r74,0r-88,193r-74,0","w":277},"-":{"d":"31,-334r271,0r0,67r-271,0r0,-67","w":332},".":{"d":"101,0r0,-126r74,0r0,126r-74,0","w":277},"\/":{"d":"40,128r289,-867r68,0r-291,867r-66,0","w":437},"0":{"d":"278,13v-155,0,-248,-109,-248,-294r0,-192v-4,-164,100,-278,248,-278v148,0,247,115,247,278r0,192v10,184,-94,294,-247,294xm278,-58v122,0,173,-77,173,-235r0,-163v3,-146,-51,-224,-173,-224v-120,0,-174,79,-174,224r0,163v-5,158,51,235,174,235"},"1":{"d":"280,0r0,-672r-125,0r0,-67r199,0r0,739r-74,0"},"2":{"d":"276,-751v177,0,301,212,186,360v-79,101,-229,226,-327,324r367,0r0,67r-469,0r0,-66r282,-272v64,-63,112,-102,117,-188v5,-86,-77,-158,-162,-154v-97,5,-164,68,-157,180r-74,0v-9,-140,98,-251,237,-251"},"3":{"d":"266,-680v-65,0,-110,60,-109,125r-74,0v-2,-108,79,-196,189,-196v102,0,184,88,184,189v0,53,-25,100,-76,139v68,28,122,109,124,198v2,129,-110,238,-238,238v-128,0,-239,-116,-233,-244r74,0v2,105,73,170,157,173v127,5,219,-155,135,-260v-45,-56,-68,-69,-179,-70r0,-66v89,16,162,-32,162,-114v0,-64,-52,-112,-116,-112"},"4":{"d":"386,0r0,-135r-374,0r0,-67r358,-537r90,0r0,537r67,0r0,67r-67,0r0,135r-74,0xm386,-202r0,-435r-287,435r287,0"},"5":{"d":"454,-244v0,-98,-78,-188,-177,-188v-59,0,-109,26,-152,78r-59,-21r67,-364r334,0r0,67r-274,0r-37,204v170,-106,372,40,372,222v0,137,-111,259,-248,259v-137,0,-248,-112,-254,-245r74,0v4,91,80,174,176,174v99,0,178,-88,178,-186"},"6":{"d":"275,13v-178,0,-314,-206,-222,-381v57,-108,171,-261,242,-371r86,0r-175,260v158,-85,323,77,323,234v0,135,-114,258,-254,258xm455,-243v0,-98,-80,-188,-179,-188v-97,0,-177,85,-177,182v0,101,78,191,177,191v96,0,179,-89,179,-185"},"7":{"d":"108,0r304,-672r-348,0r0,-67r426,0r0,67r-302,672r-80,0"},"8":{"d":"42,-217v0,-85,58,-175,125,-196v-57,-28,-86,-77,-86,-148v0,-109,91,-190,199,-190v105,0,195,90,193,195v-1,66,-38,123,-88,143v68,28,125,105,127,195v3,126,-113,231,-238,231v-123,0,-232,-107,-232,-230xm438,-218v0,-86,-77,-155,-163,-155v-87,0,-159,73,-159,160v0,85,74,155,158,155v89,0,164,-71,164,-160xm399,-562v0,-64,-56,-118,-119,-118v-64,0,-125,50,-125,115v0,68,56,121,124,121v62,0,120,-56,120,-118"},"9":{"d":"279,-751v178,0,314,205,222,380v-57,108,-171,261,-242,371r-86,0r175,-259v-158,85,-323,-77,-323,-234v0,-135,114,-258,254,-258xm278,-680v-96,0,-179,89,-179,184v0,93,87,186,179,186v97,0,177,-83,177,-179v0,-102,-79,-191,-177,-191"},":":{"d":"101,0r0,-126r74,0r0,126r-74,0xm101,-384r0,-126r74,0r0,126r-74,0","w":277},";":{"d":"41,67r88,-193r74,0r-88,193r-74,0xm129,-384r0,-126r74,0r0,126r-74,0","w":277},"<":{"d":"144,-301r414,191r0,73r-509,-232r0,-64r509,-232r0,73","w":606},"=":{"d":"555,-436r0,75r-504,0r0,-75r504,0xm555,-241r0,75r-504,0r0,-75r504,0","w":606},">":{"d":"48,-110r414,-191r-414,-191r0,-73r509,232r0,64r-509,232r0,-73","w":606},"?":{"d":"264,0r0,-126r74,0r0,126r-74,0xm295,-680v-87,0,-168,84,-159,172r-71,0v-10,-140,105,-243,237,-243v172,0,296,209,175,345v-50,57,-139,120,-139,213r-74,0v-3,-69,32,-137,104,-202v52,-48,79,-68,83,-139v5,-81,-76,-146,-156,-146","w":591},"@":{"d":"122,-366v0,229,256,412,481,292v48,-25,87,-58,117,-101r60,-1v-53,104,-181,185,-327,188v-209,4,-382,-176,-382,-385v0,-204,179,-379,383,-379v181,0,343,140,343,319v0,138,-118,294,-235,294v-47,0,-76,-18,-87,-53v-32,34,-72,51,-120,51v-83,0,-140,-69,-140,-151v0,-141,114,-306,250,-306v55,0,93,22,113,67r15,-47r68,0r-102,305v-9,26,-13,43,-13,52v0,19,10,29,30,29v105,0,172,-131,172,-245v0,-153,-140,-266,-297,-266v-179,0,-329,158,-329,337xm292,-297v0,49,29,92,78,92v95,0,167,-184,167,-260v0,-39,-31,-73,-70,-73v-94,0,-175,141,-175,241","w":867},"A":{"d":"11,0r319,-739r82,0r317,739r-80,0r-107,-248r-344,0r-107,248r-80,0xm227,-315r286,0r-142,-339","w":740},"B":{"d":"249,-739v155,-5,255,69,255,196v0,60,-27,109,-82,148v111,39,158,173,98,283v-47,87,-125,112,-270,112r-174,0r0,-739r173,0xm469,-208v0,-122,-88,-152,-241,-148r-78,0r0,289v83,1,209,0,247,-22v35,-20,72,-68,72,-119xm430,-548v-7,-92,-68,-128,-194,-124r-86,0r0,249r80,0v128,1,188,-24,200,-125","w":574},"C":{"d":"44,-372v0,-204,178,-379,382,-379v148,0,306,104,341,202r-82,0v-46,-74,-147,-128,-258,-131v-160,-4,-309,150,-309,308v0,166,149,317,314,314v111,-2,206,-64,256,-135r82,0v-54,110,-186,203,-338,206v-212,4,-388,-173,-388,-385","w":813},"D":{"d":"76,0r0,-739v195,-2,384,-5,489,86v71,62,132,161,135,282v4,165,-116,312,-261,353v-92,26,-242,16,-363,18xm150,-67v156,1,277,-1,362,-68v147,-116,149,-355,-1,-470v-84,-65,-204,-69,-361,-67r0,605","w":744},"E":{"d":"76,0r0,-739r404,0r0,67r-330,0r0,266r319,0r0,67r-319,0r0,272r330,0r0,67r-404,0","w":536},"F":{"d":"76,0r0,-739r375,0r0,67r-301,0r0,267r290,0r0,67r-290,0r0,338r-74,0","w":485},"G":{"d":"118,-372v0,172,151,314,325,314v140,0,271,-99,299,-216r-413,0r0,-67r502,0v-6,192,-192,354,-391,354v-208,0,-396,-177,-396,-386v0,-204,185,-378,396,-378v154,0,312,106,346,209r-84,0v-43,-78,-148,-135,-262,-138v-175,-4,-322,144,-322,308","w":872},"H":{"d":"76,0r0,-739r74,0r0,325r383,0r0,-325r74,0r0,739r-74,0r0,-347r-383,0r0,347r-74,0","w":683},"I":{"d":"76,0r0,-739r74,0r0,739r-74,0","w":226},"J":{"d":"215,-58v88,-3,117,-56,117,-172r0,-509r74,0r0,531v1,79,-8,103,-40,148v-65,89,-216,98,-296,19v-37,-37,-58,-81,-59,-134r73,0v4,67,61,120,131,117","w":482},"K":{"d":"76,0r0,-739r74,0r0,425r341,-425r94,0r-292,360r292,379r-92,0r-247,-320r-96,118r0,202r-74,0","w":591},"L":{"d":"76,0r0,-739r74,0r0,672r306,0r0,67r-380,0","w":462},"M":{"d":"76,0r0,-739r114,0r270,629r269,-629r114,0r0,739r-74,0r0,-657r-278,657r-63,0r-278,-657r0,657r-74,0","w":919},"N":{"d":"76,0r0,-739r100,0r414,613r0,-613r74,0r0,739r-74,0r-440,-650r0,650r-74,0","w":740},"O":{"d":"44,-366v0,-209,181,-385,390,-385v204,0,391,175,391,379v0,209,-182,385,-391,385v-203,0,-390,-175,-390,-379xm118,-366v0,165,153,308,317,308v170,0,316,-144,316,-314v0,-165,-151,-308,-316,-308v-171,0,-317,143,-317,314","w":869},"P":{"d":"565,-517v0,144,-108,224,-276,219r-139,0r0,298r-74,0r0,-739r194,0v186,-5,295,68,295,222xm491,-518v4,-117,-106,-167,-246,-154r-95,0r0,307r127,0v133,2,211,-41,214,-153","w":592},"Q":{"d":"442,-751v220,0,397,169,397,389v0,105,-41,195,-124,271v44,30,69,40,112,35r0,69v-68,1,-117,-19,-165,-63v-61,42,-135,63,-222,63v-206,0,-396,-170,-396,-377v0,-219,180,-387,398,-387xm160,-216v42,82,155,158,286,158v65,0,118,-15,159,-44v-52,-36,-101,-84,-164,-106v-89,-31,-196,-42,-281,-8xm441,-680v-200,0,-372,184,-311,401v51,-18,104,-27,158,-27v174,0,266,67,376,164v67,-63,101,-136,101,-221v0,-176,-148,-317,-324,-317","w":871},"R":{"d":"503,-505v0,-116,-88,-172,-236,-167r-117,0r0,672r-74,0r0,-739r176,0v214,-6,318,71,325,241v5,117,-102,223,-218,222r208,276r-92,0r-251,-335v175,8,279,-34,279,-170","w":607},"S":{"d":"476,-203v0,117,-108,216,-225,216v-124,0,-234,-95,-229,-220r79,0v0,79,67,149,148,149v83,0,156,-63,153,-146v-4,-92,-69,-133,-165,-154v-111,-25,-189,-79,-192,-194v-3,-114,94,-199,210,-199v110,0,207,90,203,200r-77,0v-4,-73,-58,-129,-135,-129v-110,0,-176,157,-81,220v55,37,195,54,242,102v43,44,69,92,69,155","w":498},"T":{"d":"177,0r0,-672r-170,0r0,-67r412,0r0,67r-168,0r0,672r-74,0","w":426},"U":{"d":"328,13v-162,0,-252,-116,-252,-303r0,-449r74,0r0,449v-3,140,58,232,178,232v120,0,177,-93,177,-232r0,-449r74,0r0,449v5,186,-91,303,-251,303","w":655},"V":{"d":"315,0r-305,-739r81,0r259,647r261,-647r81,0r-307,739r-70,0","w":702},"W":{"d":"220,0r-210,-739r77,0r181,644r177,-644r70,0r177,643r181,-643r77,0r-211,739r-97,0r-162,-606r-163,606r-97,0","w":960},"X":{"d":"8,0r251,-378r-236,-361r86,0r196,296r195,-296r86,0r-239,361r254,378r-87,0r-209,-316r-210,316r-87,0","w":609},"Y":{"d":"259,0r0,-247r-257,-492r81,0r213,415r213,-415r81,0r-257,492r0,247r-74,0","w":592},"Z":{"d":"17,0r0,-66r363,-606r-352,0r0,-67r435,0r0,67r-362,605r373,0r0,67r-457,0","w":480},"[":{"d":"184,-172v1,132,35,180,129,223r0,76v-115,-36,-209,-124,-201,-287v8,-171,-32,-382,56,-481v45,-51,91,-86,145,-98r0,76v-87,40,-129,93,-129,214r0,277","w":351},"\\":{"d":"394,0r-310,-739r71,0r309,739r-70,0","w":605},"]":{"d":"167,-438v5,-130,-45,-183,-129,-225r0,-76v114,37,209,124,201,288v-8,172,31,380,-57,481v-45,52,-91,87,-144,97r0,-76v86,-37,128,-94,129,-213r0,-276","w":351},"^":{"d":"82,-180r-64,0r255,-559r58,0r257,559r-64,0r-223,-484","w":606},"_":{"d":"500,125r-500,0r0,-58r500,0r0,58","w":500},"`":{"d":"106,-779r198,108r-33,58r-197,-106","w":378},"a":{"d":"335,-559v100,0,177,51,214,116r0,-104r71,0r0,547r-71,0v-2,-33,4,-74,-2,-103v-34,68,-112,116,-210,116v-146,1,-295,-111,-295,-290v0,-153,139,-282,293,-282xm549,-270v0,-118,-95,-218,-214,-218v-117,0,-219,100,-219,217v0,116,106,213,221,213v111,0,212,-102,212,-212","w":683},"b":{"d":"351,13v-94,0,-181,-49,-218,-107r0,94r-70,0r0,-739r74,0r0,294r2,0v27,-66,112,-114,205,-114v156,0,296,126,296,283v0,166,-146,289,-289,289xm566,-274v0,-120,-101,-214,-220,-214v-116,0,-214,94,-214,219v0,118,101,211,219,211v115,0,215,-101,215,-216","w":682},"c":{"d":"116,-275v0,118,99,217,217,217v79,0,143,-34,192,-102r82,0v-43,97,-136,171,-266,173v-160,3,-299,-126,-299,-287v0,-218,268,-366,460,-236v49,33,85,75,106,129r-83,0v-33,-58,-103,-106,-186,-107v-119,-3,-223,94,-223,213","w":647},"d":{"d":"336,-559v94,0,173,48,212,107r0,-287r74,0r0,739r-70,0v-2,-32,4,-72,-2,-100v-52,75,-125,113,-219,113v-81,0,-156,-40,-229,-113v-30,-30,-60,-112,-60,-175v0,-158,137,-284,294,-284xm333,-58v117,0,217,-101,217,-218v0,-117,-102,-212,-219,-212v-114,0,-215,98,-215,212v0,117,100,218,217,218","w":685},"e":{"d":"42,-273v0,-155,131,-289,285,-286v162,3,286,126,284,312r-495,0v0,98,106,191,206,189v88,-1,169,-53,196,-120r77,0v-32,100,-142,189,-266,191v-156,2,-287,-130,-287,-286xm537,-314v-14,-90,-106,-174,-209,-174v-106,0,-199,80,-212,174r421,0","w":650},"f":{"d":"101,-547v-5,-125,78,-198,209,-192r0,67v-92,-4,-139,36,-135,125r136,0r0,67r-136,0r0,480r-74,0r0,-480r-85,0r0,-67r85,0","w":314},"g":{"d":"321,-559v102,0,181,52,218,118r0,-106r71,0r0,469v0,112,-11,142,-64,203v-88,102,-269,121,-385,33v-51,-39,-84,-86,-99,-145r72,0v46,87,113,130,202,130v140,0,215,-84,203,-251r-2,0v-26,71,-115,121,-212,121v-185,0,-339,-189,-264,-390v41,-110,154,-182,260,-182xm538,-273v0,-120,-99,-215,-219,-215v-110,0,-203,99,-203,209v0,121,89,221,210,221v117,0,212,-100,212,-215","w":673},"h":{"d":"300,-488v-104,0,-163,63,-163,200r0,288r-74,0r0,-739r74,0r0,271v26,-52,90,-91,166,-91v144,2,244,105,244,271r0,288r-74,0r0,-288v3,-127,-64,-200,-173,-200","w":610},"i":{"d":"63,0r0,-547r74,0r0,547r-74,0xm68,-613r0,-80r66,0r0,80r-66,0","w":200},"j":{"d":"-45,120v92,-7,112,-60,111,-170r0,-497r74,0r0,497v1,104,-4,134,-50,185v-35,39,-81,57,-135,57r0,-72xm69,-613r0,-80r66,0r0,80r-66,0","w":203},"k":{"d":"63,0r0,-739r74,0r0,519r251,-327r95,0r-212,274r226,273r-95,0r-178,-216r-87,112r0,104r-74,0","w":502},"l":{"d":"63,0r0,-739r74,0r0,739r-74,0","w":200},"m":{"d":"283,-488v-95,0,-146,59,-146,175r0,313r-74,0r0,-547r70,0v2,22,-4,53,2,71v24,-55,72,-83,144,-83v81,0,152,39,191,104v27,-61,101,-104,184,-104v106,0,221,92,221,247r0,312r-74,0r0,-305v5,-117,-58,-183,-151,-183v-94,0,-144,56,-144,183r0,305r-74,0r0,-313v4,-108,-60,-175,-149,-175","w":938},"n":{"d":"300,-488v-104,0,-163,68,-163,200r0,288r-74,0r0,-547r70,0v2,25,-4,58,2,79v41,-61,97,-91,168,-91v144,0,244,101,244,271r0,288r-74,0r0,-288v4,-126,-66,-200,-173,-200","w":610},"o":{"d":"42,-270v0,-156,131,-289,287,-289v147,0,284,135,284,282v0,153,-131,290,-284,290v-151,0,-287,-131,-287,-283xm539,-277v0,-114,-100,-211,-210,-211v-117,0,-213,101,-213,218v0,114,99,212,213,212v118,0,210,-101,210,-219","w":655},"p":{"d":"344,13v-95,0,-176,-53,-207,-115r0,294r-74,0r0,-739r70,0v2,30,-4,68,2,94v33,-60,123,-107,216,-106v135,0,289,116,289,288v0,157,-140,284,-296,284xm132,-278v0,125,98,220,214,220v120,0,220,-94,220,-214v0,-115,-100,-216,-215,-216v-118,0,-219,92,-219,210","w":682},"q":{"d":"331,-559v95,-1,182,49,218,106r0,-94r70,0r0,739r-74,0r0,-294r-2,0v-27,66,-112,115,-205,115v-156,0,-299,-127,-296,-284v3,-174,138,-287,289,-288xm116,-272v0,120,101,214,220,214v117,0,214,-94,214,-220v0,-118,-101,-210,-219,-210v-115,0,-215,101,-215,216","w":682},"r":{"d":"63,0r0,-547r70,0v2,25,-4,58,2,79v24,-58,76,-88,157,-91r0,73v-96,13,-155,64,-155,180r0,306r-74,0","w":301},"s":{"d":"361,-161v0,154,-197,232,-297,122v-32,-36,-49,-75,-46,-122r74,0v-4,55,45,103,99,103v52,0,96,-39,96,-91v0,-49,-35,-85,-106,-105v-87,-25,-138,-62,-143,-152v-8,-131,173,-205,264,-109v29,30,45,64,45,104r-74,0v1,-47,-38,-77,-85,-77v-70,0,-104,99,-46,138v37,25,149,50,173,82v31,26,46,62,46,107","w":388},"t":{"d":"126,0r0,-480r-114,0r0,-67r114,0r0,-192r74,0r0,192r127,0r0,67r-127,0r0,480r-74,0","w":339},"u":{"d":"304,-58v104,0,167,-76,167,-200r0,-289r74,0r0,547r-70,0v-2,-27,4,-62,-2,-85v-32,65,-92,98,-179,98v-71,0,-136,-31,-192,-98v-65,-78,-32,-315,-39,-462r74,0r0,289v-4,129,60,200,167,200","w":608},"v":{"d":"238,0r-230,-547r80,0r189,453r189,-453r80,0r-231,547r-77,0"},"w":{"d":"214,0r-207,-547r78,0r172,458r127,-391r61,0r126,391r175,-458r78,0r-208,547r-85,0r-117,-363r-115,363r-85,0","w":831},"x":{"d":"8,0r187,-278r-187,-269r87,0r145,211r145,-211r87,0r-188,269r188,278r-87,0r-145,-219r-145,219r-87,0","w":480},"y":{"d":"448,-547r79,0r-316,739r-78,0r86,-209r-210,-530r79,0r175,436","w":536},"z":{"d":"10,0r0,-65r296,-415r-286,0r0,-67r376,0r0,67r-294,413r313,0r0,67r-405,0","w":425},"{":{"d":"37,-306v53,-18,82,-35,82,-113v0,-98,-15,-241,32,-289v21,-22,61,-33,120,-31v-53,16,-80,54,-80,115r0,178v0,88,-22,121,-90,140v67,16,90,45,90,127r0,191v1,71,22,97,80,115v-108,-2,-152,-27,-152,-134r0,-190v1,-66,-28,-101,-82,-109","w":351},"|":{"d":"304,0r0,-739r64,0r0,739r-64,0","w":672},"}":{"d":"205,-306v-68,-19,-88,-52,-90,-140v-3,-120,29,-270,-77,-293v116,-2,148,34,149,151r0,169v-1,72,29,99,82,113v-52,8,-82,44,-82,109v0,101,21,253,-37,297v-24,18,-61,27,-112,27v56,-19,77,-44,77,-115r0,-191v0,-82,23,-111,90,-127","w":351},"~":{"d":"194,-378v36,-8,190,70,220,70v37,0,70,-28,99,-83r42,47v-41,74,-89,111,-142,111v-16,9,-178,-69,-219,-69v-56,0,-71,38,-102,90r-41,-48v43,-79,91,-118,143,-118","w":606},"\u00a0":{"w":277}}});
/*!
 * The following copyright notice may not be removed under any circumstances.
 * 
 * Copyright:
 * Converted by ALLTYPE
 */
Cufon.registerFont({"w":560,"face":{"font-family":"AvantGarde-Demi","font-weight":500,"font-stretch":"normal","units-per-em":"1000","panose-1":"0 0 0 0 0 0 0 0 0 0","ascent":"800","descent":"-200","x-height":"18","bbox":"0 -855 898 225.884","underline-thickness":"50","underline-position":"-55","unicode-range":"U+0020-U+007E"},"glyphs":{" ":{"w":280},"\u00a0":{"w":280},"!":{"d":"72,-127r133,0r0,127r-133,0r0,-127xm72,-739r133,0r0,551r-133,0r0,-551","w":280},"\"":{"d":"74,-739r75,0r0,226r-75,0r0,-226xm208,-739r75,0r0,226r-75,0r0,-226","w":360},"#":{"d":"500,-233r-102,0r-32,233r-89,0r31,-233r-85,0r-32,233r-88,0r31,-233r-100,0r0,-98r114,0r13,-92r-99,0r0,-98r111,0r30,-219r87,0r-29,219r86,0r29,-219r90,0r-30,219r90,0r0,98r-103,0r-12,92r89,0r0,98xm248,-423r-12,92r85,0r13,-92r-86,0"},"$":{"d":"221,-48v-84,-12,-171,-101,-161,-201r131,0v0,47,39,87,87,87v72,0,114,-94,61,-145v-16,-16,-39,-24,-63,-31v-99,-32,-190,-74,-188,-203v1,-82,39,-132,90,-167v14,-9,28,-14,43,-15r0,-132r125,0r0,131v68,26,119,87,125,171r-125,-1v-6,-32,-30,-59,-68,-59v-60,0,-88,90,-39,122v56,36,137,41,187,85v41,36,68,88,68,158v0,109,-60,175,-148,201r0,132r-125,0r0,-133"},"%":{"d":"475,-161v0,-99,85,-180,180,-181v97,-1,180,83,180,181v0,97,-83,179,-180,179v-97,0,-180,-83,-180,-179xm724,-165v0,-40,-34,-66,-69,-66v-37,0,-69,27,-69,66v0,37,31,73,69,73v37,0,69,-37,69,-73xm529,-739r102,0r-306,739r-102,0xm21,-572v0,-99,85,-180,180,-181v96,-1,179,84,179,181v0,96,-83,180,-179,180v-97,0,-180,-84,-180,-180xm269,-572v0,-39,-32,-70,-68,-70v-37,0,-69,32,-69,70v0,36,33,69,68,69v36,0,69,-33,69,-69","w":860},"&":{"d":"489,-570v-2,93,-50,147,-116,182r68,75r72,-123r147,0r-127,223r131,142r-97,85r-101,-106v-40,55,-97,109,-185,110v-128,2,-249,-101,-246,-232v2,-113,64,-170,139,-213v-33,-35,-61,-72,-62,-134v-2,-106,81,-191,188,-191v101,0,191,79,189,182xm267,-111v57,0,86,-44,106,-82r-115,-129v-42,21,-90,52,-90,114v0,56,45,97,99,97xm299,-623v-49,0,-77,56,-49,96v10,16,26,36,39,46v34,-16,74,-35,74,-82v-1,-38,-25,-60,-64,-60","w":680},"'":{"d":"74,-739r76,0r0,226r-76,0r0,-226","w":220},"(":{"d":"211,-303v0,132,56,233,138,292r0,139v-86,-15,-147,-90,-190,-151v-72,-103,-111,-268,-65,-421v28,-93,76,-167,141,-229v33,-32,71,-53,114,-64r0,138v-82,61,-138,166,-138,296","w":380},")":{"d":"175,-303v0,-130,-57,-235,-138,-296r0,-139v132,42,217,162,255,294v63,221,-30,421,-158,524v-30,25,-62,41,-97,48r0,-140v82,-58,138,-160,138,-291","w":380},"*":{"d":"116,-486r54,-91r-100,7r0,-69r100,6r-54,-89r61,-30r45,90r46,-91r57,35r-54,85r100,-7r0,70r-102,-6r56,84r-56,36r-47,-92r-44,92","w":440},"+":{"d":"245,-570r116,0r0,191r194,0r0,116r-194,0r0,198r-116,0r0,-198r-194,0r0,-116r194,0r0,-191","w":600},",":{"d":"73,73v38,-6,63,-25,58,-73r-59,0r0,-133r133,0r0,128v4,93,-44,142,-132,145r0,-67","w":280},"-":{"d":"74,-377r277,0r0,118r-277,0r0,-118","w":420},".":{"d":"72,-133r133,0r0,133r-133,0r0,-133","w":280},"\/":{"d":"349,-739r94,0r-323,867r-94,0","w":460},"0":{"d":"266,-752v164,0,259,97,259,260r0,250v1,160,-90,260,-242,260v-158,0,-253,-98,-253,-265r0,-246v-2,-158,90,-259,236,-259xm276,-622v-74,3,-113,52,-113,132r0,251v0,77,39,128,113,128v78,0,116,-55,116,-138r0,-247v0,-69,-43,-129,-116,-126"},"1":{"d":"246,-613r-93,0r0,-126r226,0r0,739r-133,0r0,-613"},"2":{"d":"273,-752v164,-3,293,157,231,328v-26,72,-82,125,-135,172r-141,126r292,0r0,126r-478,0r0,-126r255,-237v39,-39,90,-78,90,-151v0,-61,-44,-108,-106,-108v-76,0,-119,61,-114,139r-133,-1v-13,-152,102,-265,239,-268"},"3":{"d":"385,-227v-2,-93,-71,-130,-168,-127r0,-126v62,1,115,-9,115,-76v0,-41,-30,-66,-70,-66v-35,0,-61,27,-60,63r-133,-1v-4,-101,92,-192,193,-192v106,0,206,90,203,197v-2,61,-23,106,-64,132v74,25,113,104,117,197v9,212,-280,325,-428,175v-47,-47,-73,-102,-75,-167r134,-1v0,60,59,108,120,108v63,0,117,-54,116,-116"},"4":{"d":"340,-739r112,0r0,503r78,0r0,126r-78,0r0,110r-133,0r0,-110r-319,0r0,-109xm319,-514r-177,278r177,0r0,-278"},"5":{"d":"261,-367v-44,0,-76,22,-97,49r-119,-34r70,-387r334,0r0,126r-235,0r-23,136v27,-11,56,-19,92,-20v136,-4,237,126,237,257v0,137,-117,258,-255,258v-126,0,-253,-113,-253,-236r133,-1v7,56,52,108,115,108v73,0,126,-58,126,-131v0,-66,-59,-127,-125,-125"},"6":{"d":"278,18v-175,0,-302,-172,-242,-354v10,-29,22,-55,39,-80r211,-323r157,0r-165,251v124,-16,207,59,240,148v65,179,-66,358,-240,358xm400,-236v0,-70,-57,-131,-124,-132v-67,0,-122,57,-122,126v0,69,52,131,123,131v67,0,123,-59,123,-125"},"7":{"d":"361,-613r-296,0r0,-126r435,0r0,126r-267,613r-148,0"},"8":{"d":"31,-228v2,-87,47,-154,109,-183v-35,-33,-60,-67,-60,-135v0,-111,83,-206,196,-206v110,0,203,94,200,203v-1,66,-22,104,-60,139v67,33,105,97,107,190v3,128,-118,238,-245,238v-137,0,-250,-109,-247,-246xm390,-222v0,-65,-53,-117,-113,-117v-61,0,-113,53,-113,117v0,60,54,111,113,111v61,0,113,-51,113,-111xm356,-546v0,-43,-38,-77,-77,-77v-42,0,-79,35,-79,77v0,41,37,78,79,78v42,0,77,-37,77,-78"},"9":{"d":"276,-752v219,0,321,251,204,428r-213,324r-156,0r163,-248v-154,14,-250,-101,-252,-238v-2,-144,108,-266,254,-266xm399,-497v0,-71,-58,-125,-125,-126v-64,-1,-119,61,-119,125v0,71,51,129,123,129v69,0,121,-61,121,-128"},":":{"d":"72,-133r133,0r0,133r-133,0r0,-133xm72,-502r133,0r0,133r-133,0r0,-133","w":280},";":{"d":"73,73v38,-6,63,-25,58,-73r-59,0r0,-133r133,0r0,128v4,93,-44,142,-132,145r0,-67xm72,-502r133,0r0,133r-133,0r0,-133","w":280},"<":{"d":"558,-42r-509,-225r0,-99r509,-227r0,111r-362,167r362,162r0,111","w":600},"=":{"d":"555,-163r-504,0r0,-115r504,0r0,115xm555,-358r-504,0r0,-115r504,0r0,115","w":600},">":{"d":"410,-315r-362,-167r0,-111r509,227r0,99r-509,225r0,-111","w":600},"?":{"d":"188,-127r133,0r0,127r-133,0r0,-127xm258,-619v-61,0,-88,42,-93,97r-133,0v11,-143,91,-230,240,-230v130,0,213,99,213,235v0,122,-110,157,-154,238v-12,22,-10,57,-10,91r-133,0v-5,-117,40,-188,104,-239v29,-23,60,-47,60,-96v1,-58,-36,-96,-94,-96"},"@":{"d":"406,-56v88,-1,151,-40,201,-86r95,0v-65,92,-161,158,-304,160v-214,4,-395,-167,-395,-384v0,-255,248,-454,517,-365v146,49,276,208,207,405v-33,95,-116,183,-237,183v-33,0,-61,-17,-59,-53v-22,26,-59,48,-104,48v-103,3,-166,-81,-166,-180v0,-116,85,-239,208,-234v58,2,100,22,125,60r10,-53r96,0r-53,320v0,9,8,15,16,15v78,-19,108,-94,111,-186v6,-168,-120,-271,-285,-271v-178,0,-310,134,-310,311v0,185,146,312,327,310xm382,-455v-56,1,-99,54,-99,111v0,47,29,89,78,89v61,0,104,-55,104,-113v0,-49,-33,-88,-83,-87","w":740},"A":{"d":"315,-739r107,0r311,739r-151,0r-80,-191r-262,0r-82,191r-151,0xm448,-324r-79,-224r-79,224r158,0","w":740,"k":{"y":50,"w":50,"v":50,"Y":139,"W":96,"V":127,"T":73}},"B":{"d":"548,-224v0,158,-123,224,-295,224r-185,0r0,-739r163,1v154,-8,272,56,272,194v0,64,-32,119,-81,141v75,22,126,88,126,179xm411,-230v0,-95,-107,-93,-206,-92r0,189v103,3,206,1,206,-97xm366,-533v0,-75,-81,-76,-161,-73r0,151v83,4,161,-1,161,-78","w":580},"C":{"d":"411,-114v83,-2,144,-38,186,-87r159,0v-48,122,-185,216,-343,219v-206,4,-383,-182,-383,-387v0,-202,179,-387,379,-383v160,3,304,100,351,225r-156,-1v-40,-49,-112,-89,-194,-91v-132,-3,-243,122,-243,255v0,126,117,254,244,250","w":780},"D":{"d":"68,-739v184,3,362,-8,465,87v78,72,141,183,124,331v-18,155,-126,279,-269,307v-97,18,-208,13,-320,14r0,-739xm523,-365v0,-173,-128,-251,-318,-241r0,473v188,13,318,-63,318,-232","w":700},"E":{"d":"68,-739r397,0r0,133r-260,0r0,170r249,0r0,133r-249,0r0,170r260,0r0,133r-397,0r0,-739","w":520},"F":{"d":"68,-739r376,0r0,133r-239,0r0,170r228,0r0,133r-228,0r0,303r-137,0r0,-739","w":480,"k":{"A":95,".":42,",":42}},"G":{"d":"30,-364v0,-214,186,-396,402,-388v156,6,304,104,349,230r-164,0v-50,-73,-172,-125,-285,-80v-97,39,-180,125,-163,262v17,135,117,226,270,226v91,0,173,-65,206,-133r-309,-1r0,-129r482,0v13,227,-182,395,-393,395v-208,0,-395,-171,-395,-382","w":840},"H":{"d":"68,-739r137,0r0,296r264,0r0,-296r137,0r0,739r-137,0r0,-310r-264,0r0,310r-137,0r0,-739","w":680},"I":{"d":"68,-739r137,0r0,739r-137,0r0,-739","w":280},"J":{"d":"209,-118v56,1,68,-40,68,-90r0,-531r137,0r0,521v6,146,-68,231,-199,236v-107,4,-208,-78,-206,-187r137,-1v6,31,28,51,63,52","w":480},"K":{"d":"68,-739r137,0r0,320r230,-320r164,0r-279,363r279,376r-164,0r-230,-324r0,324r-137,0r0,-739","w":620},"L":{"d":"68,-739r137,0r0,606r226,0r0,133r-363,0r0,-739","w":440,"k":{"y":75,"Y":90,"W":90,"V":90,"T":50}},"M":{"d":"68,-739r187,0r198,565r201,-565r186,0r0,739r-137,0r0,-554r-191,554r-116,0r-191,-554r0,554r-137,0r0,-739","w":900},"N":{"d":"68,-739r154,0r308,540r0,-540r137,0r0,739r-152,0r-310,-538r0,538r-137,0r0,-739","w":740},"O":{"d":"30,-365v0,-210,179,-388,385,-388v208,0,385,179,385,388v0,207,-180,383,-385,383v-204,0,-385,-177,-385,-383xm663,-368v0,-136,-115,-252,-248,-252v-134,0,-248,117,-248,252v0,132,116,254,248,254v132,0,248,-122,248,-254","w":840},"P":{"d":"540,-513v0,177,-133,253,-335,233r0,280r-137,0r0,-739r187,1v172,-11,285,72,285,225xm403,-511v0,-94,-98,-98,-198,-95r0,193v101,7,198,-4,198,-98","k":{"A":100,".":16,",":16}},"Q":{"d":"727,-124v26,14,61,23,101,19r0,123v-81,2,-143,-20,-192,-55v-55,34,-126,53,-212,55v-259,6,-476,-258,-367,-531v54,-134,181,-235,362,-239v211,-4,402,173,396,388v-3,107,-33,177,-88,240xm521,-139v-74,-51,-187,-124,-308,-84v51,86,200,142,308,84xm324,-598v-92,41,-168,124,-155,264v190,-43,346,40,449,131v37,-37,59,-92,60,-159v4,-171,-179,-315,-354,-236","w":840},"R":{"d":"537,-604v67,152,-28,313,-169,332r200,272r-169,0r-192,-283r-2,0r0,283r-137,0r0,-739v150,7,318,-24,406,53v26,23,48,49,63,82xm414,-454v31,-93,-35,-161,-133,-151r-76,-1r0,219v90,1,185,6,209,-67","w":580,"k":{"y":-31,"Y":20,"W":20,"V":26,"T":-16}},"S":{"d":"253,18v-123,0,-244,-100,-239,-226r143,0v-2,58,48,94,103,94v51,0,98,-41,96,-93v-6,-143,-189,-110,-257,-193v-30,-36,-57,-79,-58,-142v-4,-118,103,-210,218,-210v111,0,222,98,216,210r-141,-1v0,-43,-40,-76,-83,-76v-68,0,-99,95,-49,133v61,47,155,53,213,103v47,41,76,88,78,168v3,129,-113,233,-240,233","w":520},"T":{"d":"143,-606r-136,0r0,-133r411,0r0,133r-138,0r0,606r-137,0r0,-606","w":420,"k":{"y":12,"w":15,"u":56,"s":43,"r":42,"o":50,"i":5,"e":50,"c":50,"a":40,"A":70,";":12,":":12,".":-4,"-":10,",":-4}},"U":{"d":"567,-278v7,185,-96,309,-271,295v-145,-11,-228,-121,-228,-294r0,-462r137,0r0,482v-3,86,38,143,118,143v78,0,107,-71,107,-163r0,-462r137,0r0,461","w":640},"V":{"d":"8,-739r144,0r199,562r199,-562r144,0r-286,739r-113,0","w":700,"k":{"y":15,"u":68,"r":40,"o":80,"i":9,"e":80,"a":80,"A":125,";":13,":":13,".":13,"-":20,",":13}},"W":{"d":"7,-739r140,0r129,517r127,-517r100,0r125,517r130,-517r140,0r-215,739r-109,0r-120,-489r-123,489r-109,0","w":900,"k":{"y":-1,"u":40,"r":39,"o":50,"i":7,"e":50,"a":50,"A":94,";":12,":":12,".":12,"-":10,",":12}},"X":{"d":"260,-368r-255,-371r160,0r175,254r176,-254r160,0r-256,371r256,368r-160,0r-176,-252r-175,252r-160,0","w":680},"Y":{"d":"246,-273r-243,-466r151,0r161,340r161,-340r150,0r-243,466r0,273r-137,0r0,-273","w":620,"k":{"v":25,"u":82,"q":100,"p":60,"o":100,"i":5,"e":100,"a":100,"A":138,";":8,":":8,".":8,"-":60,",":8}},"Z":{"d":"299,-606r-265,0r0,-133r427,0r0,124r-279,482r298,0r0,133r-462,0r0,-117","w":500},"[":{"d":"211,-409v7,150,-40,354,81,395r0,141v-72,-2,-127,-60,-162,-104v-80,-102,-50,-289,-56,-460v-4,-133,50,-211,129,-268v27,-20,57,-31,89,-33r0,142v-68,23,-85,99,-81,187","w":320},"\\":{"d":"84,-739r104,0r315,739r-104,0","w":640},"]":{"d":"118,-410v4,-87,-13,-163,-81,-185r0,-144v106,15,185,104,207,196v23,96,8,224,11,337v4,142,-41,239,-126,300v-29,20,-59,32,-92,33r0,-142v122,-39,74,-246,81,-395","w":320},"^":{"d":"63,-362r180,-377r120,0r180,377r-104,47r-136,-279r-136,279","w":600},"_":{"d":"0,138r0,-90r500,0r0,90r-500,0","w":500},"`":{"d":"131,-840r222,135r-53,92r-226,-125","w":420},"a":{"d":"194,-548v109,-50,251,-12,299,73r0,-79r122,0r0,554r-122,0v-2,-24,4,-55,-2,-75v-38,52,-102,92,-188,93v-208,2,-316,-195,-257,-401v20,-69,86,-136,148,-165xm327,-111v94,0,162,-73,162,-167v0,-90,-68,-163,-160,-163v-96,0,-166,75,-166,170v0,88,77,160,164,160","w":660},"b":{"d":"364,18v-88,0,-149,-36,-188,-93r0,75r-122,0r0,-739r133,0r0,243r2,0v34,-47,93,-73,171,-75v158,-5,283,142,278,295v-6,175,-102,294,-274,294xm505,-275v0,-92,-69,-167,-159,-167v-87,0,-167,69,-167,159v0,96,69,172,167,172v93,0,159,-72,159,-164","w":660},"c":{"d":"330,-111v54,-1,101,-31,121,-69r150,0v-31,111,-146,206,-284,198v-171,-9,-281,-121,-287,-298v-5,-158,138,-291,295,-291v129,0,250,93,276,202r-150,-1v-27,-44,-64,-70,-128,-71v-92,-2,-160,72,-160,163v0,96,72,169,167,167","w":640},"d":{"d":"302,-571v79,-6,139,30,178,75r0,-243r133,0r0,739r-122,0v-2,-24,4,-55,-2,-75v-45,84,-192,120,-296,68v-92,-47,-163,-136,-163,-267v0,-172,109,-285,272,-297xm325,-111v90,0,164,-78,164,-167v0,-88,-78,-163,-166,-163v-83,0,-160,79,-160,161v0,90,71,169,162,169","w":660},"e":{"d":"324,-571v172,0,319,166,277,353r-430,0v20,81,122,133,217,94v22,-9,40,-20,53,-35r147,-1v-28,93,-147,178,-266,178v-157,0,-292,-133,-292,-290v0,-160,133,-299,294,-299xm474,-336v-22,-92,-162,-139,-249,-74v-27,20,-47,44,-56,74r305,0","w":640},"f":{"d":"57,-554v4,-114,81,-217,217,-197r0,132v-59,3,-80,5,-84,66r77,-1r0,118r-77,0r0,436r-133,0r0,-436r-47,0r0,-118r47,0","w":280,"k":{"f":-38}},"g":{"d":"198,-546v103,-50,250,-22,289,69v6,-20,0,-53,2,-77r122,0r0,470v3,151,-75,236,-179,284v-163,76,-354,-27,-394,-158r151,0v47,63,190,67,248,7v34,-36,44,-68,53,-123r-2,-3v-40,52,-92,95,-177,95v-175,0,-281,-123,-281,-302v0,-131,75,-216,168,-262xm330,-111v85,0,156,-80,156,-164v0,-92,-74,-170,-166,-166v-94,4,-154,65,-157,162v-2,94,73,168,167,168","w":660},"h":{"d":"299,-441v-89,3,-112,74,-112,173r0,268r-133,0r0,-739r133,0r0,227v29,-37,79,-59,142,-59v149,0,216,108,216,272r0,299r-133,0r0,-283v-4,-83,-16,-162,-113,-158","w":600},"i":{"d":"54,-554r133,0r0,554r-133,0r0,-554xm54,-739r133,0r0,121r-133,0r0,-121","w":240},"j":{"d":"17,56v57,1,55,-42,55,-93r0,-517r133,0r0,520v1,130,-61,213,-188,219r0,-129xm72,-739r133,0r0,121r-133,0r0,-121","w":260},"k":{"d":"54,-739r133,0r0,446r178,-261r157,0r-200,271r233,283r-178,0r-190,-259r0,259r-133,0r0,-739","w":580},"l":{"d":"54,-739r133,0r0,739r-133,0r0,-739","w":240},"m":{"d":"295,-441v-99,-2,-108,85,-108,178r0,263r-133,0r0,-554r122,0v2,16,-4,39,2,51v23,-45,77,-68,144,-68v74,0,130,37,161,86v35,-51,95,-86,176,-86v153,0,226,102,226,261r0,310r-133,0r0,-295v3,-84,-23,-146,-103,-146v-92,0,-113,77,-113,178r0,263r-133,0r0,-295v5,-84,-30,-144,-108,-146","w":940},"n":{"d":"308,-441v-102,-4,-121,82,-121,191r0,250r-133,0r0,-554r123,0v2,16,-4,39,2,51v41,-62,161,-87,245,-46v88,42,122,133,122,263r0,286r-133,0r0,-287v2,-86,-29,-151,-105,-154","w":600},"o":{"d":"30,-275v0,-164,140,-297,299,-297v158,0,290,139,290,297v0,160,-137,293,-296,293v-156,0,-293,-137,-293,-293xm486,-275v0,-90,-76,-167,-163,-167v-95,0,-157,67,-160,167v-3,87,72,164,160,164v92,0,163,-72,163,-164","w":640},"p":{"d":"356,18v-81,-2,-129,-30,-169,-78r0,245r-133,0r0,-739r122,0v2,23,-4,53,2,72v45,-82,185,-115,288,-68v91,41,168,138,168,274v0,154,-120,298,-278,294xm501,-277v0,-88,-74,-165,-159,-165v-90,0,-165,75,-163,166v3,99,61,160,158,165v92,5,164,-75,164,-166","w":660},"q":{"d":"200,-546v101,-50,244,-20,287,65v6,-19,0,-50,2,-73r122,0r0,739r-133,0r0,-245r-2,0v-37,49,-89,77,-167,78v-194,5,-336,-214,-257,-408v29,-70,82,-124,148,-156xm485,-276v0,-86,-75,-166,-158,-166v-91,0,-164,72,-164,164v0,94,69,167,164,167v88,0,158,-79,158,-165","w":660},"r":{"d":"306,-443v-83,5,-119,52,-119,145r0,298r-133,0r0,-554r121,0v2,16,-4,38,2,50v28,-44,63,-67,129,-68r0,129","w":320,"k":{"q":18,"o":18,"n":-5,"m":-5,"g":8,"f":-38,"e":8,"d":8,"c":27,".":-9,"-":10,",":-9}},"s":{"d":"52,-336v-75,-173,163,-314,298,-186v36,34,55,73,55,120r-130,0v-3,-24,-25,-37,-51,-39v-43,-4,-74,55,-38,77v89,55,239,46,234,192v-4,119,-83,184,-200,190v-112,6,-200,-81,-201,-191r136,-1v6,34,30,63,70,63v51,0,84,-60,43,-91v-50,-36,-131,-40,-175,-82v-17,-16,-32,-33,-41,-52","w":440},"t":{"d":"74,-436r-65,0r0,-118r65,0r0,-185r133,0r0,185r80,0r0,118r-80,0r0,436r-133,0r0,-436","w":300},"u":{"d":"299,-111v96,2,115,-81,115,-170r0,-273r133,0r0,554r-122,0v-2,-18,4,-44,-2,-59v-24,50,-73,77,-141,77v-147,0,-228,-96,-228,-258r0,-314r133,0r0,272v-3,95,24,169,112,171","w":600},"v":{"d":"1,-554r148,0r129,364r127,-364r148,0r-224,554r-104,0"},"w":{"d":"10,-554r141,0r103,338r91,-338r105,0r92,338r102,-338r141,0r-201,554r-82,0r-105,-359r-105,359r-82,0","w":800},"x":{"d":"198,-286r-172,-268r154,0r97,152r94,-152r155,0r-171,268r198,286r-164,0r-112,-179r-112,179r-164,0"},"y":{"d":"209,-52r-203,-502r151,0r127,355r133,-355r151,0r-318,739r-143,0","w":580},"z":{"d":"20,-118r246,-318r-218,0r0,-118r377,0r0,118r-246,318r263,0r0,118r-422,0r0,-118","w":460},"{":{"d":"132,-307v130,15,83,187,90,319v4,70,21,97,80,115v-111,7,-183,-25,-183,-133r0,-191v4,-67,-31,-98,-82,-110v54,-9,82,-43,82,-111r0,-188v-3,-106,70,-139,183,-131v-56,16,-77,48,-80,114v-7,131,38,301,-90,316","w":340},"|":{"d":"243,-739r119,0r0,739r-119,0r0,-739","w":600},"}":{"d":"208,-307v-128,-16,-83,-185,-90,-317v-4,-65,-24,-97,-80,-113v120,-9,183,28,183,150r0,168v-5,67,27,102,82,112v-50,13,-82,43,-82,111r0,189v8,110,-72,141,-183,134v59,-18,80,-45,80,-115r0,-191v2,-77,21,-112,90,-128","w":340},"~":{"d":"368,-356v65,34,101,-23,123,-65r64,73v-35,60,-81,139,-182,113v-61,-15,-103,-61,-171,-61v-51,0,-66,49,-87,82r-64,-75v35,-70,105,-156,214,-110","w":600}}});
/*!
 * The following copyright notice may not be removed under any circumstances.
 * 
 * Copyright:
 * e
 */
Cufon.registerFont({"w":503,"face":{"font-family":"AvantGarde-Thin-Italic","font-weight":400,"font-style":"italic","font-stretch":"normal","units-per-em":"1000","panose-1":"0 0 0 0 0 0 0 0 0 0","ascent":"800","descent":"-200","x-height":"4","bbox":"-83 -725 970 195","underline-thickness":"50","underline-position":"-55","unicode-range":"U+0020-U+007E"},"glyphs":{" ":{"w":468,"k":{" ":-274}},"\u00a0":{"w":468},"!":{"d":"70,-121r71,0r-21,119r-71,0xm176,-660r72,0r-93,489r-70,0","w":274,"k":{" ":-253}},"\"":{"d":"227,-653r-37,197r-49,0r35,-197r51,0xm326,-653r-36,197r-49,0r35,-197r50,0","w":274},"#":{"d":"454,-653r50,0r-115,220r93,0r120,-220r49,0r-119,220r163,0r-30,56r-169,0r-58,106r164,0r-28,58r-164,0r-120,211r-49,0r120,-211r-99,0r-121,211r-49,0r119,-211r-155,0r21,-58r171,0r57,-106r-164,0r21,-56r171,0xm298,-271r91,0r58,-106r-93,0"},"$":{"d":"204,-37v-65,-28,-132,-71,-119,-169r63,0v-2,92,100,145,178,92v43,-30,85,-107,44,-165v-32,-45,-122,-45,-162,-83v-64,-36,-56,-176,-3,-222v34,-29,67,-57,121,-62r7,-79r63,0r-7,79v74,27,119,46,115,155r-66,0v5,-55,-45,-99,-95,-101v-110,-3,-168,157,-57,195v88,30,191,72,162,205v-20,91,-75,141,-179,155r-14,77r-65,0"},"%":{"d":"604,-15v-100,66,-258,-4,-224,-137v21,-84,77,-145,184,-146v91,0,155,62,125,169v-15,54,-40,84,-85,114xm627,-179v-30,-99,-183,-46,-183,55v0,73,115,79,158,28v21,-25,35,-48,25,-83xm153,-2r419,-658r64,0r-419,658r-64,0xm178,-644v95,-66,246,-13,239,109v-4,62,-33,99,-79,144v-62,61,-224,37,-237,-53v-13,-89,23,-162,77,-200xm200,-578v-57,28,-57,156,27,154v76,-2,118,-48,118,-116v0,-71,-100,-74,-145,-38","w":711},"&":{"d":"264,-398v-24,-28,-47,-59,-47,-109v0,-96,92,-178,191,-178v104,0,170,99,125,193v-27,57,-84,98,-149,129r100,113r134,-183r72,0r-164,234r134,162r-56,49r-120,-148v-49,74,-128,144,-238,149v-149,6,-211,-146,-146,-270v34,-64,85,-96,164,-141xm306,-342v-86,33,-206,131,-135,242v36,57,124,58,177,14v36,-30,69,-58,92,-99xm477,-533v-2,-56,-59,-92,-121,-73v-50,15,-88,89,-50,140v11,16,25,29,43,40v54,-22,114,-46,128,-107","w":689},"'":{"d":"262,-667r78,0r-106,176r-79,0","w":316},"(":{"d":"273,111v-131,-67,-209,-188,-188,-374v19,-175,168,-383,322,-420r-7,65v-136,94,-252,199,-252,405v0,116,57,213,132,260","w":337},")":{"d":"144,-674v135,59,217,212,185,399v-30,179,-158,342,-325,399r7,-69v128,-55,250,-223,250,-407v0,-117,-49,-206,-131,-259","w":337},"*":{"d":"248,-576r-37,-84r58,-23r29,86r56,-86r42,30r-56,77r84,0r-7,50r-91,0r28,86r-49,21r-29,-79r-58,79r-42,-28r58,-79r-86,0r7,-50r93,0","w":401},"+":{"d":"319,-512r70,0r-28,192r185,0r-7,70r-192,0r-35,199r-71,0r35,-199r-191,0r7,-70r198,0","w":545},",":{"d":"238,-121r-108,176r-70,0r105,-176r73,0","w":253,"k":{" ":296}},"-":{"d":"70,-313r249,0r-7,56r-249,0","w":316},".":{"d":"158,-2r-70,0r14,-112r71,0","w":253},"\/":{"d":"475,-674r-398,785r-63,0r396,-785r65,0","w":401},"0":{"d":"287,6v-144,16,-264,-79,-231,-226v31,-136,33,-302,124,-381v57,-49,100,-79,184,-79v121,0,211,97,182,240v-28,138,-29,309,-124,384v-43,34,-87,56,-135,62xm475,-440v23,-111,-46,-189,-154,-167v-71,14,-138,73,-152,151r-48,261v-8,133,170,176,256,93v27,-26,46,-60,54,-104"},"1":{"d":"241,-611r7,-56r183,0r-119,665r-71,0r113,-609r-113,0"},"2":{"d":"352,-680v94,-4,197,70,192,166v-4,84,-45,144,-106,194r-311,255r334,0r-14,63r-419,0r7,-63r371,-305v36,-34,68,-78,69,-135v2,-76,-82,-133,-164,-108v-66,20,-113,78,-135,157r-63,0v29,-131,103,-218,239,-224"},"3":{"d":"127,-213v-28,108,94,194,191,135v49,-29,96,-74,96,-153v0,-81,-72,-125,-159,-118r7,-63v93,-2,169,-26,169,-123v0,-49,-32,-78,-75,-78v-69,0,-115,48,-129,108r-65,0v13,-59,40,-94,82,-131v30,-25,66,-38,110,-38v83,-2,148,60,142,141v-4,66,-33,104,-86,149v73,39,94,170,43,254v-47,76,-145,164,-276,125v-75,-23,-126,-92,-114,-208r64,0"},"4":{"d":"525,-667r-94,482r65,0r-7,64r-65,0r-21,119r-63,0r21,-119r-333,0r7,-64r412,-482r78,0xm113,-185r255,0r70,-377"},"5":{"d":"120,-213v-12,129,112,193,216,129v56,-34,108,-86,108,-173v0,-78,-47,-134,-139,-129v-64,3,-100,24,-143,66r-49,-22r121,-325r305,0r-14,63r-249,0r-65,178v37,-14,76,-22,120,-23v119,-2,197,88,187,206v-10,122,-112,212,-216,240v-146,39,-259,-63,-246,-210r64,0"},"6":{"d":"255,11v-157,9,-241,-122,-191,-268v12,-39,32,-77,56,-106r255,-304r79,0r-178,220v150,-45,277,99,225,261v-30,93,-125,190,-246,197xm113,-196v-17,152,197,182,269,82v28,-37,58,-78,58,-134v0,-87,-52,-139,-137,-139v-118,0,-178,84,-190,191","k":{" ":259}},"7":{"d":"468,-604r-306,0r14,-63r384,0r-14,63r-384,602r-77,0"},"8":{"d":"62,-150v0,-111,60,-180,142,-220v-36,-48,-66,-119,-32,-185v36,-70,100,-128,199,-128v77,0,150,57,147,148v-3,85,-47,129,-108,165v100,35,102,213,26,284v-56,52,-108,97,-202,97v-64,0,-107,-31,-142,-71v-20,-23,-30,-53,-30,-90xm417,-199v20,-110,-108,-170,-199,-115v-45,26,-79,76,-79,145v0,66,38,120,102,120v94,0,160,-63,176,-150xm382,-611v-86,-8,-149,40,-153,123v-2,54,40,85,88,85v77,0,128,-50,128,-129v0,-41,-23,-75,-63,-79"},"9":{"d":"326,-220v-152,43,-259,-75,-230,-231v24,-131,153,-260,332,-217v69,17,130,69,130,161v0,104,-52,177,-120,257r-211,248r-86,0xm484,-475v2,-96,-75,-159,-172,-132v-82,23,-147,94,-152,200v-4,87,81,143,173,122v83,-19,149,-94,151,-190"},":":{"d":"102,-114r71,0r-22,112r-70,0xm165,-463r73,0r-23,114r-71,0","w":253},";":{"d":"95,55r-70,0r105,-176r71,0xm201,-463r65,0r-21,114r-65,0","w":253},"<":{"d":"588,-512r-14,72r-405,162r342,178r-15,63r-419,-213r15,-56","w":545,"k":{" ":259}},"=":{"d":"70,-213r455,0r-14,63r-455,0xm106,-391r454,0r-14,64r-454,0","w":545},">":{"d":"438,-278r-332,-169r14,-65r419,206r-7,56r-497,213r7,-63","w":545},"?":{"d":"319,-114r-21,112r-71,0r21,-112r71,0xm127,-456v9,-123,132,-218,269,-218v173,0,197,235,86,318v-62,47,-136,98,-156,185r-71,0v21,-132,123,-159,190,-241v21,-15,37,-59,34,-98v-5,-59,-41,-105,-115,-101v-89,4,-161,65,-174,155r-63,0","w":545},"@":{"d":"492,-3v-233,62,-440,-114,-370,-358v50,-175,172,-333,406,-320v143,8,297,123,252,303v-30,122,-112,258,-248,258v-39,0,-68,-19,-88,-44v-32,18,-70,34,-117,35v-69,1,-119,-49,-102,-128v31,-144,110,-225,225,-278v61,-14,122,11,150,44r21,-35r50,0r-155,334v7,28,39,25,64,10v74,-46,156,-118,156,-230v0,-130,-79,-227,-224,-222v-191,7,-390,185,-350,404v20,107,107,200,246,200v111,0,195,-63,256,-127r51,0v-20,57,-77,86,-131,117v-29,17,-60,29,-92,37xm516,-324v30,-51,55,-175,-45,-150v-96,23,-133,107,-162,199v-25,78,49,121,112,74v36,-27,70,-81,95,-123","w":795},"A":{"d":"412,-667r72,0r162,665r-70,0r-57,-218r-306,0r-127,218r-77,0xm257,-285r248,0r-72,-305","w":689},"B":{"d":"523,-217v0,151,-88,215,-257,215r-199,0r113,-665r170,0v121,0,198,41,199,155v2,90,-52,132,-107,163v50,21,81,68,81,132xm280,-58v108,-1,174,-65,174,-169v0,-106,-153,-82,-267,-86r-43,255r136,0xm472,-498v0,-132,-115,-101,-234,-106r-44,227v136,3,278,5,278,-121","w":524},"C":{"d":"387,3v-175,3,-341,-141,-301,-338v41,-200,191,-336,410,-336v131,0,250,65,279,173r-78,0v-49,-111,-219,-145,-347,-86v-86,39,-132,100,-172,186v-31,68,-39,148,-4,216v35,67,106,126,212,124v119,-2,190,-55,253,-120r86,0v-80,100,-173,178,-338,181","w":732},"D":{"d":"363,-667v222,-11,369,120,330,343v-31,175,-199,333,-436,322r-192,0r120,-665r178,0xm236,-65v254,8,381,-114,403,-305v11,-94,-27,-133,-86,-188v-56,-52,-184,-56,-303,-53r-100,546r86,0","w":689,"k":{"\/":-83}},"E":{"d":"190,-667r356,0r-7,63r-291,0r-44,241r278,0r-7,57r-285,0r-42,241r290,0r-7,63r-361,0","k":{" ":-92}},"F":{"d":"183,-667r335,0r-14,63r-270,0r-44,241r264,0r-7,57r-264,0r-49,304r-71,0","w":443},"G":{"d":"380,11v-164,0,-316,-145,-290,-324v31,-214,188,-368,415,-368v138,0,251,76,287,190r-84,0v-35,-117,-247,-171,-368,-89v-59,40,-111,98,-148,164v-22,39,-32,81,-32,126v0,152,123,256,288,229v113,-18,214,-100,267,-189r-377,0r7,-63r454,0v-36,192,-212,324,-419,324","w":795},"H":{"d":"190,-667r72,0r-58,290r342,0r49,-290r70,0r-119,665r-71,0r57,-304r-342,0r-56,304r-71,0","w":630},"I":{"d":"188,-667r66,0r-129,665r-63,0","w":214},"J":{"d":"99,-164v-14,77,49,131,123,107v49,-17,93,-62,104,-121r98,-489r65,0r-100,503v-18,96,-101,164,-208,164v-88,0,-162,-62,-146,-164r64,0","w":443},"K":{"d":"190,-667r72,0r-79,382r377,-382r84,0r-318,318r199,347r-80,0r-169,-290r-107,107r-35,183r-71,0","w":545,"k":{" ":-33}},"L":{"d":"187,-667r65,0r-115,602r277,0r-7,63r-347,0","w":422},"M":{"d":"181,-667r108,0r141,560r341,-560r99,0r-113,665r-70,0r105,-588r-355,588r-57,0r-141,-588r-107,588r-70,0","w":837},"N":{"d":"185,-667r100,0r270,553r98,-553r72,0r-128,665r-64,0r-297,-588r-107,588r-64,0","w":689},"O":{"d":"431,-674v240,-46,440,125,361,380v-50,163,-185,295,-401,298v-209,3,-357,-162,-290,-377v49,-159,159,-268,330,-301xm707,-494v-40,-79,-149,-148,-279,-116v-126,31,-214,113,-254,232v-60,175,64,348,257,317v171,-27,303,-135,303,-325v0,-37,-9,-73,-27,-108","w":795},"P":{"d":"375,-667v159,-3,238,65,220,204v-16,124,-121,206,-297,199r-122,0r-49,262r-64,0r127,-665r185,0xm520,-450v24,-115,-41,-168,-173,-161r-99,0r-58,276v100,-2,228,12,278,-36v26,-25,46,-50,52,-79","w":545},"Q":{"d":"607,-51v-92,42,-229,88,-345,39v-64,-27,-114,-93,-145,-160v-38,-82,-19,-193,15,-268v66,-153,276,-298,497,-222v99,35,201,111,198,250v-3,149,-77,256,-170,326v26,17,54,36,100,28r-14,63v-63,-2,-104,-18,-136,-56xm181,-192v49,77,112,141,235,135v54,-3,105,-21,142,-43v-83,-85,-232,-154,-377,-92xm331,-282v139,0,215,64,292,148v51,-26,83,-89,108,-150v35,-85,25,-178,-27,-242v-26,-32,-64,-62,-118,-85v-113,-14,-209,3,-278,64v-85,76,-146,147,-141,290v54,-13,105,-25,164,-25","w":795,"k":{" ":195}},"R":{"d":"532,-447v15,-114,-44,-157,-157,-157r-134,0r-114,602r-64,0r120,-665r164,0v187,-3,266,58,248,220v-13,123,-94,180,-234,197r135,248r-79,0r-169,-304v132,13,270,-31,284,-141","w":545},"S":{"d":"187,-484v24,161,311,58,265,292v-23,117,-100,195,-230,195v-104,0,-205,-73,-180,-195r71,0v-17,73,51,133,121,134v110,2,189,-118,128,-214v-30,-47,-102,-40,-152,-71v-73,-23,-120,-125,-74,-214v29,-56,114,-127,199,-124v103,4,176,74,161,183r-72,0v3,-68,-33,-108,-89,-108v-75,0,-142,55,-148,122","w":443},"T":{"d":"276,-604r-156,0r7,-63r369,0r-7,63r-142,0r-120,602r-72,0","w":401},"U":{"d":"465,-49v-139,116,-402,46,-366,-164r77,-454r72,0r-83,472v-2,92,77,151,170,134v72,-14,131,-71,147,-152r92,-454r63,0r-91,475v-11,63,-39,108,-81,143","w":587},"V":{"d":"113,-667r77,0r129,574r339,-574r80,0r-405,665r-64,0","w":630},"W":{"d":"132,-667r70,0r52,574r262,-574r77,0r43,574r278,-574r56,0r-313,665r-85,0r-42,-538r-248,538r-87,0","w":880},"X":{"d":"0,-2r283,-347r-149,-318r77,0r129,262r220,-262r77,0r-269,318r164,347r-78,0r-135,-283r-242,283r-77,0","w":545},"Y":{"d":"120,-667r70,0r129,368r255,-368r77,0r-311,447r-35,218r-71,0r35,-218","w":545},"Z":{"d":"546,-667r-14,63r-433,539r339,0r-14,63r-417,0r14,-63r424,-539r-311,0r14,-63r398,0","w":443},"[":{"d":"111,-65v0,-133,35,-246,58,-368v24,-132,101,-206,227,-241r-14,77v-73,23,-125,91,-141,178r-58,305v-13,84,19,122,79,153r-14,79v-88,-46,-137,-82,-137,-183","w":316,"k":{" ":51}},"\\":{"d":"183,-683r65,0r162,681r-63,0","w":545},"]":{"d":"148,-674v95,27,158,105,135,227v-31,161,-31,383,-129,473v-39,35,-91,63,-154,84r14,-70v82,-33,138,-105,155,-211r47,-293v11,-81,-28,-118,-82,-140","w":316},"^":{"w":468},"_":{"d":"433,62r-7,56r-452,0r7,-56r452,0","w":464},"`":{"d":"319,-498r-71,0r-51,-176r72,0","w":316},"a":{"d":"294,4v-165,4,-260,-147,-199,-305v45,-115,142,-196,298,-201v79,-3,149,35,174,90r14,-86r70,0r-91,496r-71,0r15,-84v-49,52,-114,88,-210,90xm403,-447v-145,-10,-257,89,-257,228v0,87,69,161,166,161v115,0,217,-100,227,-199v11,-110,-38,-183,-136,-190","w":630,"k":{" ":51}},"b":{"d":"618,-310v-7,186,-101,314,-289,314v-83,0,-146,-37,-195,-83r-14,77r-64,0r120,-665r65,0r-44,248v53,-51,113,-92,210,-92v122,0,216,69,211,201xm394,-445v-137,7,-223,96,-234,225v-15,180,243,196,339,89v35,-39,59,-90,61,-161v2,-81,-79,-157,-166,-153","w":630},"c":{"d":"294,10v-159,2,-264,-133,-212,-293v43,-131,147,-224,307,-224v106,0,191,65,213,158r-77,0v-17,-96,-167,-118,-253,-67v-69,41,-129,97,-129,199v0,95,56,162,156,162v86,0,144,-43,183,-95r78,0v-41,89,-142,158,-266,160","w":587},"d":{"d":"511,-86v-57,74,-185,113,-301,72v-110,-39,-159,-174,-106,-298v43,-101,146,-194,283,-197v80,-2,146,41,180,90r49,-248r65,0r-121,665r-64,0xm539,-271v0,-112,-74,-193,-190,-168v-103,22,-200,92,-203,221v-2,116,104,192,225,151v80,-26,168,-97,168,-204","w":630},"e":{"d":"560,-171v-69,113,-167,205,-341,175v-141,-25,-196,-236,-107,-362v54,-76,137,-141,256,-144v136,-3,245,123,213,273r-440,0v0,92,51,178,149,178v93,0,166,-60,199,-120r71,0xm525,-292v0,-59,-33,-99,-76,-124v-117,-68,-258,28,-294,124r370,0","w":587},"f":{"d":"173,-440r-78,0r7,-58r78,0v29,-106,72,-174,220,-176r-14,70v-85,-1,-121,39,-134,106r112,0r-7,58r-119,0r-80,438r-63,0","w":295},"g":{"d":"278,10v-196,13,-251,-228,-154,-370v52,-76,134,-140,256,-140v80,0,145,37,176,95r14,-86r64,0r-92,496v-36,113,-136,190,-285,190v-105,0,-205,-79,-211,-184r70,1v16,115,188,148,288,75v49,-35,87,-88,96,-173v-54,53,-121,89,-222,96xm151,-264v-25,123,27,209,152,209v121,0,225,-102,225,-223v0,-100,-81,-170,-192,-155v-83,11,-170,93,-185,169","w":609,"k":{" ":280}},"h":{"d":"475,-313v23,-131,-163,-167,-247,-89v-25,24,-43,54,-52,96r-63,304r-64,0r120,-665r72,0r-51,234v43,-38,93,-72,169,-72v108,0,200,86,180,206r-50,297r-72,0","w":545},"i":{"d":"143,-498r70,0r-92,496r-70,0xm178,-667r72,0r-21,112r-72,0","w":193,"k":{"p":-116}},"j":{"d":"143,-498r70,0r-90,486v-23,92,-81,183,-206,179r21,-63v93,-13,103,-59,120,-148xm171,-667r72,0r-21,112r-72,0","w":193},"k":{"d":"171,-667r72,0r-86,461r283,-292r79,0r-234,248r164,248r-93,0r-120,-197r-93,92r-22,105r-70,0","w":464},"l":{"d":"178,-667r72,0r-129,665r-70,0","w":193},"m":{"d":"505,-426v44,-42,99,-79,180,-79v90,0,185,66,167,163r-63,340r-64,0r58,-317v13,-120,-140,-157,-217,-87v-25,22,-40,53,-47,93r-56,311r-72,0r58,-336v4,-109,-151,-124,-219,-62v-23,21,-40,46,-45,80r-56,318r-71,0r92,-496r70,0r-14,58v30,-32,84,-71,146,-69v74,2,116,39,153,83","w":859},"n":{"d":"468,-306v22,-111,-73,-171,-173,-131v-57,23,-104,66,-133,124r-49,311r-64,0r85,-496r70,0r-14,72v41,-42,93,-83,169,-83v100,0,200,88,180,196r-57,311r-65,0","w":545},"o":{"d":"303,4v-147,-3,-251,-95,-226,-254v24,-153,140,-258,312,-262v148,-4,233,131,199,283v-26,118,-144,236,-285,233xm525,-243v22,-132,-60,-223,-202,-192v-97,21,-180,98,-186,220v-4,89,78,152,161,150v118,-2,209,-68,227,-178","w":587},"p":{"d":"338,2v-93,9,-155,-28,-197,-88r-42,253r-71,0r113,-665r70,0r-14,72v56,-45,114,-81,199,-81v154,0,264,114,222,281v-32,129,-133,214,-280,228xm170,-234v-19,130,86,190,208,167v95,-18,175,-98,175,-216v0,-109,-106,-192,-229,-148v-80,29,-139,95,-154,197","w":630,"k":{" ":51}},"q":{"d":"504,-79v-88,95,-344,123,-400,-27v-35,-94,-12,-215,37,-271v63,-71,131,-132,253,-132v80,0,146,37,173,97r14,-86r63,0r-119,665r-71,0xm546,-292v5,-126,-120,-176,-237,-135v-80,28,-161,100,-159,210v1,95,67,171,176,159v113,-12,215,-115,220,-234","w":630},"r":{"d":"340,-440v-90,11,-148,57,-164,141r-56,297r-64,0r85,-489r63,0r-14,72v24,-51,88,-84,164,-86","w":274},"s":{"d":"257,-444v-68,-5,-130,77,-77,122v59,50,187,43,168,168v-15,96,-76,160,-179,160v-80,0,-151,-61,-134,-156r64,0v-9,51,20,104,70,104v75,0,145,-87,89,-154v-29,-35,-99,-31,-132,-69v-78,-92,5,-243,122,-238v72,3,144,53,127,137r-63,0v8,-44,-19,-71,-55,-74","w":359},"t":{"d":"204,-433r-105,0r7,-58r105,0r30,-176r64,0r-29,169r106,0r-7,65r-113,0r-79,431r-63,0","w":316},"u":{"d":"261,4v-118,2,-191,-94,-169,-233r42,-262r70,0r-51,324v-3,117,170,132,244,65v26,-23,44,-48,50,-83r57,-306r70,0r-85,489r-72,0r14,-63v-39,41,-93,68,-170,69","w":545},"v":{"d":"204,-2r-119,-489r70,0r100,398r241,-398r71,0r-291,489r-72,0","k":{" ":-33}},"w":{"d":"100,-491r64,0r79,405r183,-354r51,0r56,347r235,-398r70,0r-276,489r-85,0r-44,-318r-162,318r-79,0","w":774},"x":{"d":"218,-250r-133,-241r84,0r100,185r155,-185r87,0r-213,248r126,241r-84,0r-92,-190r-171,190r-84,0","w":443},"y":{"d":"92,-491r63,0r93,398r248,-398r71,0r-405,658r-77,0r112,-183"},"z":{"d":"347,-433r-248,0r7,-58r339,0r-7,58r-339,368r283,0r-7,63r-368,0r7,-63","w":401},"{":{"d":"86,24v1,-84,46,-151,46,-234v0,-38,-17,-64,-55,-68v124,-33,82,-221,131,-326v21,-45,74,-66,153,-63v-176,38,-49,326,-220,389v38,7,53,39,53,81v0,80,-39,145,-39,226v0,40,16,71,49,81v-73,6,-119,-22,-118,-86","w":316},"|":{"d":"379,-674r56,0r-120,672r-56,0","w":609},"}":{"d":"257,-581v0,77,-35,142,-35,218v0,44,20,71,61,78v-93,7,-93,108,-108,194v-18,104,-40,204,-175,195v120,-41,95,-208,133,-326v10,-33,34,-54,71,-63v-93,-60,-10,-206,-10,-308v0,-47,-17,-79,-60,-90v85,-2,123,33,123,102","w":316},"~":{"w":468}}});
/*!
 * The following copyright notice may not be removed under any circumstances.
 * 
 * Copyright:
 * Converted by ALLTYPE
 */
Cufon.registerFont({"w":560,"face":{"font-family":"AvantGarde-DemiOblique","font-weight":500,"font-style":"oblique","font-stretch":"normal","units-per-em":"1000","panose-1":"0 0 0 0 0 0 0 0 0 0","ascent":"800","descent":"-200","x-height":"18","bbox":"-26 -855 1035 225.306","underline-thickness":"50","underline-position":"-55","unicode-range":"U+0020-U+007E"},"glyphs":{" ":{"w":280},"\u00a0":{"w":280},"!":{"d":"96,-127r133,0r-24,127r-133,0xm209,-739r133,0r-102,551r-133,0","w":280},"\"":{"d":"211,-739r75,0r-42,226r-75,0xm345,-739r75,0r-42,226r-75,0","w":360},"#":{"d":"543,-233r-102,0r-75,233r-89,0r74,-233r-85,0r-75,233r-88,0r74,-233r-100,0r18,-98r114,0r30,-92r-99,0r19,-98r111,0r70,-219r87,0r-69,219r86,0r69,-219r90,0r-70,219r90,0r-19,98r-103,0r-29,92r89,0xm326,-423r-29,92r85,0r30,-92r-86,0"},"$":{"d":"308,-162v96,0,148,-148,36,-174v-94,-22,-184,-79,-156,-205v20,-90,74,-160,167,-182r24,-132r125,0r-24,131v61,26,103,83,94,171r-125,-1v-2,-34,-21,-62,-60,-59v-40,3,-76,38,-76,82v0,43,40,54,70,68v99,21,182,84,157,215v-19,104,-88,172,-185,201r-25,132r-125,0r25,-133v-81,-12,-151,-102,-124,-201r131,0v-8,51,24,87,71,87"},"%":{"d":"652,18v-96,3,-163,-76,-147,-179v15,-93,112,-179,213,-181v84,-1,151,64,150,147v-1,121,-102,210,-216,213xm672,-92v43,-2,84,-40,84,-86v0,-33,-28,-53,-58,-53v-44,0,-82,31,-82,80v0,33,23,60,56,59xm666,-739r102,0r-443,739r-102,0xm274,-392v-96,3,-163,-77,-147,-180v15,-93,113,-179,214,-181v84,-1,148,64,148,147v0,120,-103,211,-215,214xm320,-641v-41,0,-83,35,-83,82v0,31,25,58,59,56v41,-3,81,-36,80,-82v0,-33,-22,-56,-56,-56","w":860},"&":{"d":"598,-603v-4,114,-71,173,-153,215r54,75r95,-123r147,0r-169,223r105,142r-113,85r-81,-106v-48,53,-114,109,-205,110v-113,2,-211,-78,-207,-191v4,-138,86,-203,182,-254v-26,-34,-47,-76,-37,-134v17,-100,111,-191,224,-191v88,0,161,62,158,149xm288,-111v59,0,95,-46,121,-82r-91,-129v-53,25,-111,58,-113,134v-1,45,37,77,83,77xm415,-623v-51,-1,-89,53,-64,103v7,13,19,31,27,39v43,-18,91,-37,91,-95v0,-32,-21,-47,-54,-47","w":680},"'":{"d":"211,-739r76,0r-42,226r-76,0","w":220},"(":{"d":"267,-303v-23,120,14,236,84,292r-26,139v-201,-49,-250,-373,-149,-572v46,-90,106,-166,184,-229v39,-32,81,-53,126,-64r-26,138v-97,63,-169,170,-193,296","w":380},")":{"d":"223,-268v35,-125,3,-270,-75,-331r26,-139v151,51,230,230,195,433v-30,171,-128,295,-249,385v-34,26,-70,41,-107,48r26,-140v87,-52,155,-151,184,-256","w":380},"*":{"d":"206,-486r71,-91r-101,7r12,-69r99,6r-37,-89r66,-30r29,90r63,-91r50,35r-70,85r102,-7r-13,70r-101,-6r40,84r-62,36r-30,-92r-61,92","w":440},"+":{"d":"351,-570r116,0r-36,191r194,0r-21,116r-194,0r-37,198r-116,0r37,-198r-194,0r21,-116r194,0","w":600},",":{"d":"97,-133r133,0r-24,128v-12,87,-62,141,-159,145r12,-67v42,-6,69,-28,72,-73r-59,0","w":280},"-":{"d":"144,-377r277,0r-22,118r-277,0","w":420},".":{"d":"97,-133r133,0r-25,133r-133,0","w":280},"\/":{"d":"486,-739r94,0r-484,867r-94,0","w":460},"0":{"d":"212,-671v119,-119,427,-107,411,112v-9,114,-35,211,-53,317v-26,150,-121,254,-290,260v-150,5,-241,-104,-204,-265v35,-154,40,-329,136,-424xm484,-496v26,-96,-69,-157,-154,-109v-42,23,-67,63,-76,115r-50,290v-6,102,138,107,190,48v24,-27,37,-57,44,-97"},"1":{"d":"360,-613r-93,0r23,-126r226,0r-137,739r-133,0"},"2":{"d":"413,-752v134,-2,228,102,201,244v-24,124,-114,192,-198,256r-165,126r292,0r-23,126r-478,0r23,-126r299,-237v52,-45,118,-84,120,-175v0,-50,-36,-84,-88,-84v-79,0,-132,69,-139,139r-133,-1v12,-140,143,-266,289,-268"},"3":{"d":"429,-240v5,-90,-60,-115,-146,-114r23,-126v72,1,129,-16,130,-91v0,-33,-26,-51,-59,-51v-36,0,-67,31,-71,63r-133,-1v13,-96,121,-192,229,-192v95,0,171,70,169,163v-2,81,-37,132,-91,166v69,23,94,108,80,197v-21,133,-155,244,-302,244v-125,0,-225,-100,-202,-236r134,-1v-10,66,40,108,100,108v71,-1,135,-60,139,-129"},"4":{"d":"477,-739r112,0r-93,503r78,0r-24,126r-78,0r-20,110r-133,0r20,-110r-319,0r21,-109xm414,-514r-228,278r177,0"},"5":{"d":"329,-367v-46,1,-80,23,-106,49r-113,-34r142,-387r334,0r-23,126r-235,0r-49,136v29,-10,58,-20,96,-20v129,-2,206,107,192,241v-15,145,-155,273,-305,274v-123,1,-232,-102,-209,-236r133,-1v-3,62,35,109,95,108v85,-2,150,-66,152,-155v1,-57,-46,-103,-104,-101"},"6":{"d":"275,18v-143,4,-235,-112,-208,-263v12,-68,47,-125,85,-171r271,-323r157,0r-212,251v131,-14,216,62,216,187v0,177,-141,314,-309,319xm446,-249v5,-71,-39,-119,-102,-119v-79,0,-148,66,-147,153v0,58,40,105,101,104v76,-2,142,-65,148,-138"},"7":{"d":"475,-613r-296,0r23,-126r435,0r-23,126r-381,613r-148,0"},"8":{"d":"282,18v-148,9,-245,-116,-204,-265v19,-69,75,-139,138,-164v-21,-23,-39,-51,-39,-94v0,-137,106,-243,239,-247v97,-2,169,71,166,165v-3,86,-36,135,-90,177v49,26,76,71,77,141v0,161,-140,278,-287,287xm433,-234v5,-65,-37,-105,-93,-105v-71,0,-135,60,-137,137v-1,52,42,92,95,91v68,-1,130,-57,135,-123xm394,-622v-45,0,-94,39,-94,89v-1,37,29,66,66,65v48,-2,92,-40,92,-92v1,-36,-28,-62,-64,-62"},"9":{"d":"416,-752v146,0,235,108,206,265v-14,83,-58,138,-104,192r-251,295r-156,0r209,-248v-133,12,-213,-71,-213,-189v0,-175,139,-315,309,-315xm493,-509v6,-70,-42,-114,-104,-114v-76,0,-145,69,-144,152v0,59,40,103,102,102v76,-1,139,-68,146,-140"},":":{"d":"97,-133r133,0r-25,133r-133,0xm165,-502r133,0r-25,133r-133,0","w":280},";":{"d":"97,-133r133,0r-24,128v-12,87,-62,141,-159,145r12,-67v42,-6,69,-28,72,-73r-59,0xm165,-502r133,0r-25,133r-133,0","w":280},"<":{"d":"566,-42r-468,-225r19,-99r551,-227r-21,111r-393,167r332,162","w":600},"=":{"d":"585,-163r-504,0r22,-115r504,0xm621,-358r-504,0r22,-115r504,0","w":600},">":{"d":"468,-315r-331,-167r21,-111r467,227r-19,99r-550,225r20,-111","w":600},"?":{"d":"212,-127r133,0r-24,127r-133,0xm373,-619v-64,0,-97,46,-111,97r-133,0v34,-132,119,-230,275,-230v125,0,199,98,177,235v-20,118,-140,157,-199,239v-15,22,-20,58,-26,90r-133,0v16,-112,72,-186,148,-239v40,-28,80,-53,80,-120v0,-47,-29,-72,-78,-72"},"@":{"d":"417,-56v91,-2,160,-41,216,-86r95,0v-80,89,-184,158,-333,160v-210,3,-365,-157,-324,-384v42,-234,305,-460,585,-365v106,36,197,140,171,292v-26,152,-130,247,-271,291v-43,14,-101,3,-88,-48v-29,26,-64,46,-113,48v-100,3,-152,-78,-133,-180v20,-109,122,-238,251,-234v55,1,95,20,114,60r20,-53r96,0r-112,323v24,32,74,-15,91,-34v43,-47,71,-113,73,-201v1,-136,-101,-213,-240,-210v-209,5,-370,158,-374,375v-2,153,121,248,276,246xm467,-455v-66,4,-122,61,-122,133v0,38,22,68,63,67v70,-2,125,-62,127,-132v1,-40,-27,-70,-68,-68","w":740},"A":{"d":"452,-739r107,0r174,739r-151,0r-45,-191r-262,0r-117,191r-151,0xm508,-324r-37,-224r-121,224r158,0","w":740,"k":{"y":50,"w":50,"v":50,"Y":139,"W":96,"V":127,"T":73}},"B":{"d":"497,-403v69,20,112,91,93,179v-32,147,-150,229,-337,224r-185,0r137,-739r161,1v135,-7,241,37,241,163v0,84,-49,142,-110,172xm454,-230v15,-96,-93,-93,-189,-92r-35,189v107,6,210,-6,224,-97xm289,-455v93,7,177,-7,177,-92v0,-66,-80,-60,-149,-59","w":580},"C":{"d":"432,-114v86,-2,152,-40,202,-87r159,0v-75,119,-201,215,-383,219v-203,4,-347,-168,-311,-387v41,-251,387,-502,649,-323v58,40,95,96,110,165r-156,-1v-32,-50,-98,-93,-177,-91v-153,4,-292,136,-294,299v-2,110,88,210,201,206","w":780},"D":{"d":"205,-739v177,3,355,-9,449,87v66,68,101,213,63,331v-47,146,-168,277,-325,307v-100,18,-210,13,-324,14xm591,-365v33,-177,-93,-252,-274,-241r-87,473v202,11,331,-72,361,-232","w":700},"E":{"d":"205,-739r397,0r-25,133r-260,0r-31,170r249,0r-25,133r-249,0r-31,170r260,0r-25,133r-397,0","w":520},"F":{"d":"205,-739r376,0r-25,133r-239,0r-31,170r228,0r-25,133r-228,0r-56,303r-137,0","w":480,"k":{"A":95,".":42,",":42}},"G":{"d":"91,-295v4,-261,227,-450,472,-457v153,-5,292,96,315,230r-164,0v-39,-85,-179,-124,-286,-74v-104,48,-196,127,-196,269v0,148,120,238,275,206v75,-15,146,-68,184,-126r-309,-1r24,-129r482,0v-25,212,-238,392,-466,395v-183,2,-335,-133,-331,-313","w":840},"H":{"d":"205,-739r137,0r-55,296r264,0r55,-296r137,0r-137,739r-137,0r57,-310r-264,0r-57,310r-137,0","w":680},"I":{"d":"205,-739r137,0r-137,739r-137,0","w":280},"J":{"d":"178,-170v-6,63,91,65,114,25v11,-19,19,-39,24,-63r98,-531r137,0r-109,577v-31,101,-108,177,-230,180v-104,3,-192,-72,-171,-187","w":480},"K":{"d":"205,-739r137,0r-59,320r289,-320r164,0r-346,363r209,376r-164,0r-170,-324r-60,324r-137,0","w":620},"L":{"d":"205,-739r137,0r-112,606r226,0r-25,133r-363,0","w":440,"k":{"y":75,"Y":90,"W":90,"V":90,"T":50}},"M":{"d":"205,-739r187,0r93,565r306,-565r186,0r-137,739r-137,0r103,-554r-294,554r-116,0r-88,-554r-103,554r-137,0","w":900},"N":{"d":"205,-739r154,0r208,540r100,-540r137,0r-137,739r-152,0r-210,-538r-100,538r-137,0","w":740},"O":{"d":"412,18v-203,0,-351,-163,-314,-383v34,-198,239,-387,457,-388v205,-1,351,166,313,388v-33,195,-238,383,-456,383xm736,-416v1,-117,-89,-207,-206,-204v-156,4,-297,131,-299,298v-2,114,89,212,205,208v155,-5,299,-137,300,-302","w":840},"P":{"d":"68,0r137,-739r187,1v160,-13,271,65,243,225v-28,163,-160,255,-378,233r-52,280r-137,0xm282,-413v117,9,218,-13,218,-115v0,-83,-96,-78,-183,-78","k":{"A":100,".":16,",":16}},"Q":{"d":"750,-124v24,14,58,23,97,19r-22,123v-78,2,-138,-19,-182,-55v-60,33,-133,53,-222,55v-205,2,-370,-160,-323,-382v48,-224,203,-376,461,-388v185,-9,336,132,331,317v-4,146,-59,232,-140,311xm255,-223v37,93,186,140,292,84v-65,-54,-174,-124,-292,-84xm749,-410v5,-157,-159,-256,-313,-188v-104,46,-192,126,-205,264v111,-28,238,-3,310,43v41,27,84,52,115,88v54,-49,90,-111,93,-207","w":840},"R":{"d":"205,-739v178,5,392,-37,437,117v53,180,-67,316,-223,350r149,272r-169,0r-140,-283r-2,0r-52,283r-137,0xm277,-387v131,9,240,-13,240,-131v0,-95,-103,-89,-200,-88","w":580,"k":{"y":-31,"Y":20,"W":20,"V":26,"T":-16}},"S":{"d":"250,18v-122,3,-223,-93,-197,-226r143,0v-13,59,31,96,85,94v61,-2,118,-48,116,-116v-3,-96,-114,-94,-177,-130v-53,-30,-91,-96,-78,-182v17,-111,135,-210,257,-210v110,0,200,89,177,210v-45,-3,-100,4,-141,-3v7,-44,-29,-74,-69,-74v-67,0,-122,93,-69,138v53,45,141,48,189,98v30,31,52,66,52,122v0,159,-137,276,-288,279","w":520},"T":{"d":"255,-606r-136,0r25,-133r411,0r-25,133r-138,0r-112,606r-137,0","w":420,"k":{"y":12,"w":15,"u":56,"s":43,"r":42,"o":50,"i":5,"e":50,"c":50,"a":40,"A":70,";":12,":":12,".":-4,"-":10,",":-4}},"U":{"d":"356,14v-173,30,-270,-105,-236,-291r85,-462r137,0r-92,496v-13,72,22,129,88,129v94,0,128,-77,144,-163r85,-462r137,0r-85,461v-22,156,-113,266,-263,292","w":640},"V":{"d":"145,-739r144,0r95,562r303,-562r144,0r-423,739r-113,0","w":700,"k":{"y":15,"u":68,"r":40,"o":80,"i":9,"e":80,"a":80,"A":125,";":13,":":13,".":13,"-":20,",":13}},"W":{"d":"144,-739r140,0r33,517r223,-517r100,0r29,517r226,-517r140,0r-352,739r-109,0r-29,-489r-214,489r-109,0","w":900,"k":{"y":-1,"u":40,"r":39,"o":50,"i":7,"e":50,"a":50,"A":94,";":12,":":12,".":12,"-":10,",":12}},"X":{"d":"328,-368r-186,-371r160,0r128,254r223,-254r160,0r-325,371r188,368r-160,0r-129,-252r-222,252r-160,0","w":680},"Y":{"d":"297,-273r-157,-466r151,0r98,340r224,-340r150,0r-329,466r-51,273r-137,0","w":620,"k":{"v":25,"u":82,"q":100,"p":60,"o":100,"i":5,"e":100,"a":100,"A":138,";":8,":":8,".":8,"-":60,",":8}},"Z":{"d":"411,-606r-265,0r25,-133r427,0r-23,124r-368,482r298,0r-25,133r-462,0r22,-117","w":500},"[":{"d":"245,-183v-14,67,-12,154,50,169r-27,141v-143,-14,-193,-174,-156,-332v37,-160,36,-337,140,-434v43,-40,104,-94,177,-99r-27,142v-75,25,-99,104,-115,187","w":320},"\\":{"d":"221,-739r104,0r178,739r-104,0","w":640},"]":{"d":"194,-410v16,-69,20,-169,-47,-185r27,-144v129,20,198,151,162,303v-38,166,-39,353,-141,459v-42,44,-106,101,-182,104r27,-142v71,-20,98,-92,112,-167","w":320},"^":{"d":"130,-362r250,-377r120,0r110,377r-113,47r-84,-279r-188,279","w":600},"_":{"d":"-26,138r17,-90r500,0r-17,90r-500,0","w":500},"`":{"d":"287,-840r197,135r-70,92r-203,-125","w":420},"a":{"d":"296,-548v106,-48,248,-19,285,73r15,-79r122,0r-103,554r-122,0v2,-24,14,-55,12,-75v-47,52,-112,93,-205,93v-164,0,-247,-123,-219,-294v21,-131,111,-224,215,-272xm348,-111v110,-3,194,-86,196,-200v1,-76,-53,-132,-133,-130v-111,3,-201,86,-201,199v0,75,60,133,138,131","w":660},"b":{"d":"500,-16v-103,55,-272,42,-310,-59r-14,75r-122,0r137,-739r133,0r-45,243v47,-41,101,-72,187,-75v184,-7,276,197,201,367v-36,80,-92,148,-167,188xm559,-310v2,-78,-57,-135,-135,-131v-102,6,-195,81,-195,195v0,79,55,137,138,135v109,-4,190,-85,192,-199","w":660},"c":{"d":"215,-278v-30,134,109,208,217,144v20,-12,39,-26,52,-46r150,0v-54,107,-162,198,-311,198v-165,0,-267,-117,-241,-298v28,-200,316,-388,510,-235v46,37,73,86,78,146r-150,-1v-29,-90,-174,-88,-239,-24v-34,33,-56,70,-66,116","w":640},"d":{"d":"268,-530v92,-55,256,-54,304,34r45,-243r133,0r-137,739r-122,0v2,-24,14,-55,12,-75v-44,55,-110,93,-201,93v-159,0,-248,-124,-221,-292v19,-118,95,-201,187,-256xm346,-111v104,-4,196,-87,198,-196v1,-81,-65,-143,-152,-133v-91,11,-180,89,-180,193v0,77,55,138,134,136","w":660},"e":{"d":"430,-571v177,0,286,188,211,353r-430,0v7,89,112,132,203,93v22,-9,42,-20,57,-34r147,-1v-53,93,-160,175,-299,178v-155,3,-267,-123,-238,-290v26,-150,179,-299,349,-299xm405,-441v-84,1,-143,53,-174,105r305,0v-7,-63,-62,-105,-131,-105","w":640},"f":{"d":"160,-554v25,-106,111,-215,253,-197r-24,132v-63,3,-82,8,-96,66r77,-1r-22,118r-77,0r-81,436r-133,0r81,-436r-47,0r22,-118r47,0","w":280,"k":{"f":-38}},"g":{"d":"299,-546v101,-46,250,-30,277,69v10,-21,9,-53,16,-77r122,0r-87,470v-36,180,-155,298,-356,309v-119,6,-226,-77,-241,-183r151,0v43,70,189,59,247,7v40,-36,58,-70,76,-123r-2,-3v-49,52,-108,100,-202,95v-152,-8,-249,-129,-217,-302v24,-126,111,-214,216,-262xm351,-111v100,-3,189,-90,189,-196v0,-106,-116,-167,-212,-117v-65,33,-114,86,-116,179v-2,79,58,136,139,134","w":660},"h":{"d":"462,-271v18,-80,16,-175,-81,-170v-97,5,-127,84,-144,173r-50,268r-133,0r137,-739r133,0r-42,227v35,-34,86,-59,153,-59v120,0,200,87,175,221r-65,350r-133,0","w":600},"i":{"d":"157,-554r133,0r-103,554r-133,0xm191,-739r133,0r-22,121r-133,0","w":240},"j":{"d":"308,-554r-97,520v-23,120,-88,211,-227,219r23,-129v60,1,63,-45,72,-93r96,-517r133,0xm209,-739r133,0r-22,121r-133,0","w":260},"k":{"d":"191,-739r133,0r-83,446r227,-261r157,0r-251,271r181,283r-178,0r-142,-259r-48,259r-133,0","w":580},"l":{"d":"191,-739r133,0r-137,739r-133,0","w":240},"m":{"d":"458,-295v20,-73,-3,-146,-81,-146v-104,0,-124,92,-141,178r-49,263r-133,0r103,-554r122,0v-1,16,-11,38,-8,51v31,-43,86,-68,157,-68v71,0,123,35,145,86v44,-49,103,-83,192,-86v146,-5,206,110,178,261r-58,310r-133,0r61,-335v27,-120,-129,-131,-183,-58v-25,34,-36,81,-45,130r-49,263r-133,0","w":940},"n":{"d":"461,-261v29,-91,4,-204,-106,-176v-82,21,-105,99,-121,187r-47,250r-133,0r103,-554r123,0v-1,16,-11,38,-8,51v39,-39,90,-68,164,-68v124,0,196,91,172,229r-62,342r-133,0","w":600},"o":{"d":"320,18v-153,0,-267,-126,-239,-293v25,-154,186,-296,354,-297v156,-1,262,129,235,297v-24,151,-183,293,-350,293xm405,-441v-110,8,-189,80,-194,197v-3,74,56,135,133,133v108,-4,194,-83,196,-196v1,-76,-57,-140,-135,-134","w":640},"p":{"d":"569,-70v-97,98,-298,129,-371,10r-45,245r-133,0r137,-739r122,0v-2,23,-14,52,-12,72v57,-76,194,-117,301,-68v81,37,143,144,117,274v-16,78,-56,145,-116,206xm556,-307v2,-76,-58,-135,-132,-135v-107,0,-197,87,-197,201v0,80,52,130,131,130v107,0,195,-85,198,-196","w":660},"q":{"d":"301,-546v99,-46,243,-27,275,65v10,-20,9,-50,16,-73r122,0r-137,739r-133,0r45,-245v-47,45,-100,77,-183,78v-157,2,-256,-134,-224,-299v25,-126,114,-216,219,-265xm539,-306v2,-75,-56,-136,-130,-136v-108,0,-197,84,-197,200v-1,78,55,133,136,131v102,-3,189,-89,191,-195","w":660},"r":{"d":"268,-504v39,-39,72,-68,144,-68r-24,129v-91,6,-130,61,-146,145r-55,298r-133,0r103,-554r121,0","w":320,"k":{"q":18,"o":18,"n":-5,"m":-5,"g":8,"f":-38,"e":8,"d":8,"c":27,".":-9,"-":10,",":-9}},"s":{"d":"318,-571v100,-6,178,65,162,169r-130,0v1,-25,-19,-39,-44,-39v-42,0,-83,48,-50,79v83,44,227,48,196,190v-24,112,-106,183,-235,190v-109,5,-185,-75,-166,-191r136,-1v2,37,22,63,63,63v48,0,97,-65,52,-95v-76,-50,-212,-55,-189,-194v15,-92,109,-165,205,-171","w":440},"t":{"d":"155,-436r-65,0r22,-118r65,0r34,-185r133,0r-34,185r80,0r-22,118r-80,0r-81,436r-133,0","w":300},"u":{"d":"239,-282v-21,82,-7,171,81,171v101,0,130,-87,146,-170r51,-273r133,0r-103,554r-122,0v2,-19,12,-44,9,-59v-32,49,-83,76,-155,77v-141,2,-208,-106,-180,-258r58,-314r133,0","w":600},"v":{"d":"104,-554r148,0r61,364r195,-364r148,0r-327,554r-104,0"},"w":{"d":"113,-554r141,0r40,338r154,-338r105,0r29,338r165,-338r141,0r-304,554r-82,0r-38,-359r-172,359r-82,0","w":800},"x":{"d":"251,-286r-122,-268r154,0r69,152r122,-152r155,0r-221,268r145,286r-164,0r-79,-179r-145,179r-164,0"},"y":{"d":"219,-52r-110,-502r151,0r61,355r199,-355r151,0r-455,739r-143,0","w":580},"z":{"d":"42,-118r305,-318r-218,0r22,-118r377,0r-22,118r-305,318r263,0r-22,118r-422,0","w":460},"{":{"d":"189,-307v65,10,78,60,66,129r-38,211v-6,56,16,81,61,94v-102,9,-179,-22,-158,-133r39,-210v7,-55,-24,-81,-65,-91v61,-10,92,-49,103,-111v28,-154,15,-347,242,-319v-152,32,-92,266,-167,381v-15,24,-42,40,-83,49","w":340},"|":{"d":"380,-739r119,0r-137,739r-119,0","w":600},"}":{"d":"265,-307v-68,-8,-76,-71,-64,-139r37,-213v-3,-45,-22,-66,-63,-78v87,-3,166,5,162,91v-5,97,-44,176,-44,271v0,41,31,61,67,68v-56,13,-91,49,-102,111v-15,84,-25,176,-54,250v-23,58,-99,79,-190,73v157,-32,88,-273,170,-389v15,-21,42,-36,81,-45","w":340},"~":{"d":"434,-356v66,34,106,-27,135,-65r50,73v-45,56,-100,139,-205,112v-57,-15,-93,-60,-157,-60v-53,0,-76,50,-102,82r-50,-75v46,-66,128,-158,240,-108","w":600}}});
